{"learner":{"attributes":{"scikit_learn":"{\"_estimator_type\": \"classifier\"}"},"feature_names":["total_amount_kzt","overdueinstalmentcount_po_subektu","term","was_canceled","GENDER","CLASSIFICATION","RESIDENCY","EDUCATION","MARITALSTATUS","NEGATIVESTATUS","PROFESSION","ECONOMYACTIVITYGROUP","EMPLOYMENTNATURE","DEPENDANTS_LT18","DEPENDANTS_GT18","AGE","NUM_CONTRACT_BVU","NUM_CONTRACT_MFO","NUM_CONTRACT_PDL","NUM_CONTRACT_OTHERS","NUM_COLLATERAL","NUM_USAGES","CNT_3D","CNT_1M","CNT_3M","CNT_6M","MAX_PEAKS_OVERDUECOUNT_LAST_2Y","MEAN_PEAKS_OVERDUECOUNT_LAST_2Y","MEAN_SIG_PEAKS_OVERDUECOUNT_LAST_2Y","SUM_SIG_PEAKS_OVERDUECOUNT_LAST_2Y","MONTH_OVERDUE_C0","MONTH_OVERDUE_C1","MONTH_OVERDUE_C2","MONTH_OVERDUE_C3","MONTH_OVERDUE_C4","MONTH_OVERDUE_C5","MONTH_OVERDUE_C6","MONTH_OVERDUE_C7","MONTH_OVERDUE_C8","MONTH_OVERDUE_C9","MONTH_OVERDUE_C10","MONTH_OVERDUE_C11","MONTH_OVERDUE_C12","MONTH_OVERDUE_C13","MONTH_OVERDUE_C14","MONTH_OVERDUE_C15","MONTH_OVERDUE_C16","MONTH_OVERDUE_C17","MONTH_OVERDUE_C18","MONTH_OVERDUE_C19","MONTH_OVERDUE_C20","MONTH_OVERDUE_C21","MONTH_OVERDUE_C22","MONTH_OVERDUE_C23","MONTH_OVERDUE_C24","MONTH_OVERDUE_C25","MONTH_OVERDUE_C26","MONTH_OVERDUE_C27","MONTH_OVERDUE_C28","MONTH_OVERDUE_C29","MONTH_OVERDUE_C30","MONTH_OVERDUE_C31","MONTH_OVERDUE_C32","MONTH_OVERDUE_C33","MONTH_OVERDUE_C34","MONTH_OVERDUE_C35","MONTH_OVERDUE_C36","MONTH_OVERDUE_C37","MONTH_OVERDUE_C38","MONTH_OVERDUE_C39","MONTH_OVERDUE_C40","MONTH_OVERDUE_C41","MONTH_OVERDUE_C42","MONTH_OVERDUE_C43","MONTH_OVERDUE_C44","MONTH_OVERDUE_C45","MONTH_OVERDUE_C46","MONTH_OVERDUE_C47","MONTH_OVERDUE_C48","MONTH_OVERDUE_C49","MONTH_OVERDUE_C50","MONTH_OVERDUE_C51","MONTH_OVERDUE_C52","MONTH_OVERDUE_C53","MONTH_OVERDUE_C54","MONTH_OVERDUE_C55","MONTH_OVERDUE_C56","MONTH_OVERDUE_C57","MONTH_OVERDUE_C58","MONTH_OVERDUE_C59","MONTH_OVERDUE_A0","MONTH_OVERDUE_A1","MONTH_OVERDUE_A2","MONTH_OVERDUE_A3","MONTH_OVERDUE_A4","MONTH_OVERDUE_A5","MONTH_OVERDUE_A6","MONTH_OVERDUE_A7","MONTH_OVERDUE_A8","MONTH_OVERDUE_A9","MONTH_OVERDUE_A10","MONTH_OVERDUE_A11","MONTH_OVERDUE_A12","MONTH_OVERDUE_A13","MONTH_OVERDUE_A14","MONTH_OVERDUE_A15","MONTH_OVERDUE_A16","MONTH_OVERDUE_A17","MONTH_OVERDUE_A18","MONTH_OVERDUE_A19","MONTH_OVERDUE_A20","MONTH_OVERDUE_A21","MONTH_OVERDUE_A22","MONTH_OVERDUE_A23","MONTH_OVERDUE_A24","MONTH_OVERDUE_A25","MONTH_OVERDUE_A26","MONTH_OVERDUE_A27","MONTH_OVERDUE_A28","MONTH_OVERDUE_A29","MONTH_OVERDUE_A30","MONTH_OVERDUE_A31","MONTH_OVERDUE_A32","MONTH_OVERDUE_A33","MONTH_OVERDUE_A34","MONTH_OVERDUE_A35","MONTH_OVERDUE_A36","MONTH_OVERDUE_A37","MONTH_OVERDUE_A38","MONTH_OVERDUE_A39","MONTH_OVERDUE_A40","MONTH_OVERDUE_A41","MONTH_OVERDUE_A42","MONTH_OVERDUE_A43","MONTH_OVERDUE_A44","MONTH_OVERDUE_A45","MONTH_OVERDUE_A46","MONTH_OVERDUE_A47","MONTH_OVERDUE_A48","MONTH_OVERDUE_A49","MONTH_OVERDUE_A50","MONTH_OVERDUE_A51","MONTH_OVERDUE_A52","MONTH_OVERDUE_A53","MONTH_OVERDUE_A54","MONTH_OVERDUE_A55","MONTH_OVERDUE_A56","MONTH_OVERDUE_A57","MONTH_OVERDUE_A58","MONTH_OVERDUE_A59","NUM_ADDRESSES","NUM_PHONENUMBERS","NUM_CONTRACTS","TOTALAMOUNT_MIN","TOTALAMOUNT_MAX","NUM_CONTRACTS_INS","NUM_CONTRACTS_NIN","NUM_CONTRACTS_OTHER","NUM_CONTRACTS_FOR","NUM_MONTH_BTW_LAST_CONTRACTS","NUM_MONTH_FROM_START_MAX","NUM_MONTH_FROM_START_MIN","NUM_CONTRACTS_STARTED_L3M","NUM_CONTRACTS_STARTED_L6M","NUM_CONTRACTS_STARTED_L12M","NUM_CONTRACTS_STARTED_L7_12M","AS3M","outstandingamount","overdueamount","instalmentamount","loans","frequency","monetary","recency","rfm_score","DTI3M"],"feature_types":["int","float","int","int","float","float","float","float","float","float","float","float","float","float","float","int","int","int","int","int","int","int","int","int","int","int","float","float","float","float","int","int","int","int","int","int","int","int","int","int","int","int","int","int","int","int","int","int","int","int","int","int","int","int","int","int","int","int","int","int","int","int","int","int","int","int","int","int","int","int","int","int","int","int","int","int","int","int","int","int","int","int","int","int","int","int","int","int","int","int","float","float","float","float","float","float","float","float","float","float","float","float","float","float","float","float","float","float","float","float","float","float","float","float","float","float","float","float","float","float","float","float","float","float","float","float","float","float","float","float","float","float","float","float","float","float","float","float","float","float","float","float","float","float","float","float","float","float","float","float","float","float","int","float","float","int","int","int","int","float","int","int","int","int","int","int","float","float","float","float","float","float","float","float","float","float"],"gradient_booster":{"model":{"gbtree_model_param":{"num_parallel_tree":"1","num_trees":"100"},"iteration_indptr":[0,1,2,3,4,5,6,7,8,9,10,11,12,13,14,15,16,17,18,19,20,21,22,23,24,25,26,27,28,29,30,31,32,33,34,35,36,37,38,39,40,41,42,43,44,45,46,47,48,49,50,51,52,53,54,55,56,57,58,59,60,61,62,63,64,65,66,67,68,69,70,71,72,73,74,75,76,77,78,79,80,81,82,83,84,85,86,87,88,89,90,91,92,93,94,95,96,97,98,99,100],"tree_info":[0,0,0,0,0,0,0,0,0,0,0,0,0,0,0,0,0,0,0,0,0,0,0,0,0,0,0,0,0,0,0,0,0,0,0,0,0,0,0,0,0,0,0,0,0,0,0,0,0,0,0,0,0,0,0,0,0,0,0,0,0,0,0,0,0,0,0,0,0,0,0,0,0,0,0,0,0,0,0,0,0,0,0,0,0,0,0,0,0,0,0,0,0,0,0,0,0,0,0,0],"trees":[{"base_weights":[-1.0698814E0,-1.0804346E0,5.4704914E0,-1.0861468E0,7.049228E-1,7.5824186E-2,6.089677E-1,-1.0888509E0,1.0288091E0,1.7618963E0,-4.770843E-1,-8.993111E-1,-1.0999216E0,2.0538531E-2,3.2907566E-1,2.7050493E0,-3.3436528E-1,-8.520082E-1,6.794017E-2,-9.657205E-1,-4.3565375E-1,-1.1176655E0,-1.0351249E0,-8.695354E-2,1.2946852E-1,1.755707E-1,3.8353405E0,3.74331E-2,-7.361874E-2,-9.605437E-2,-1.07845655E-2,-9.763557E-2,8.5650764E-2,1.387196E-1,-5.5922266E-2,-1.11815766E-1,1.7079223E-2,1.8301181E-2,-1.04095556E-1,8.5650764E-2,-5.9002228E-2,1.21667944E-1,4.3761998E-1],"categories":[],"categories_nodes":[],"categories_segments":[],"categories_sizes":[],"default_left":[0,1,0,1,1,0,0,0,0,0,0,1,0,0,0,0,0,0,0,0,0,0,0,0,0,0,0,0,0,0,0,0,0,0,0,0,0,0,0,0,0,0,0],"id":0,"left_children":[1,3,5,7,9,-1,-1,11,13,15,17,19,21,23,-1,25,27,29,-1,31,33,35,37,-1,-1,39,41,-1,-1,-1,-1,-1,-1,-1,-1,-1,-1,-1,-1,-1,-1,-1,-1],"loss_changes":[3.8218555E2,5.6283203E1,2.1487946E1,3.2154785E1,2.328899E1,0E0,0E0,1.0384766E1,1.6908634E1,2.0079973E1,4.59795E0,8.958237E0,4.725586E0,8.105905E0,0E0,1.8765911E1,1.3860683E0,4.9761248E-1,0E0,5.9838257E0,9.781963E0,2.7299805E0,8.099121E0,0E0,0E0,2.1464012E0,1.2634048E0,0E0,0E0,0E0,0E0,0E0,0E0,0E0,0E0,0E0,0E0,0E0,0E0,0E0,0E0,0E0,0E0],"parents":[2147483647,0,0,1,1,2,2,3,3,4,4,7,7,8,8,9,9,10,10,11,11,12,12,13,13,15,15,16,16,17,17,19,19,20,20,21,21,22,22,25,25,26,26],"right_children":[2,4,6,8,10,-1,-1,12,14,16,18,20,22,24,-1,26,28,30,-1,32,34,36,38,-1,-1,40,42,-1,-1,-1,-1,-1,-1,-1,-1,-1,-1,-1,-1,-1,-1,-1,-1],"split_conditions":[4.7681262E5,5.702E3,8.7E2,1.5E1,7.5E-1,7.5824186E-2,6.089677E-1,2.4E1,4.0617566E5,1.3E1,1.359804E4,6.666667E-1,1.8571428E0,9E0,3.2907566E-1,6.58E2,2.2E1,1E0,6.794017E-2,5.132543E4,6E0,2.9598803E5,5.3E1,-8.695354E-2,1.2946852E-1,9E0,6E0,3.74331E-2,-7.361874E-2,-9.605437E-2,-1.07845655E-2,-9.763557E-2,8.5650764E-2,1.387196E-1,-5.5922266E-2,-1.11815766E-1,1.7079223E-2,1.8301181E-2,-1.04095556E-1,8.5650764E-2,-5.9002228E-2,1.21667944E-1,4.3761998E-1],"split_indices":[96,9,31,1,28,0,0,15,90,159,100,27,28,151,0,7,21,17,0,90,160,105,7,0,0,16,151,0,0,0,0,0,0,0,0,0,0,0,0,0,0,0,0],"split_type":[0,0,0,0,0,0,0,0,0,0,0,0,0,0,0,0,0,0,0,0,0,0,0,0,0,0,0,0,0,0,0,0,0,0,0,0,0,0,0,0,0,0,0],"sum_hessian":[5.450618E3,5.442671E3,7.947073E0,5.425703E3,1.6968075E1,1.1813216E0,6.7657514E0,5.4192593E3,6.4435725E0,8.698823E0,8.269252E0,3.0359967E2,5.1156597E3,5.154858E0,1.2887145E0,5.7992153E0,2.8996077E0,6.4435725E0,1.825679E0,2.6461606E2,3.8983616E1,4.003177E3,1.1124828E3,3.2217863E0,1.9330719E0,2.1478577E0,3.651358E0,1.0739288E0,1.825679E0,5.3696437E0,1.0739288E0,2.635421E2,1.0739288E0,1.825679E0,3.7157936E1,4.0017808E3,1.3961074E0,5.154858E0,1.107328E3,1.0739288E0,1.0739288E0,1.1813216E0,2.4700363E0],"tree_param":{"num_deleted":"0","num_feature":"176","num_nodes":"43","size_leaf_vector":"1"}},{"base_weights":[-1.0499763E0,-1.0622672E0,3.2231417E0,-1.068169E0,6.342121E-1,3.672081E0,4.416716E-1,-1.0693387E0,1.5378231E-1,1.4758142E0,-5.174373E-1,7.1041934E-2,3.9324615E0,-5.8765918E-2,1.2383664E-1,-8.702956E-1,-1.0811363E0,2.1648827E0,-3.1691727E-1,-8.3819306E-1,8.5256144E-2,4.1238308E-1,1.2148052E-1,-9.66997E-1,-5.299834E-1,-1.0825461E0,-3.6684386E-2,1.6384563E-1,2.904639E0,3.710046E-2,-7.2103314E-2,-9.503857E-2,-7.864318E-3,-6.047633E-2,-1.0046333E-1,-6.301652E-2,5.70351E-2,-1.1012429E-1,-1.0145938E-1,-6.1926764E-2,1.4929146E-1,9.060718E-2,-6.0810316E-2,7.409542E-2,3.3052146E-1],"categories":[],"categories_nodes":[],"categories_segments":[],"categories_sizes":[],"default_left":[0,1,1,0,1,0,0,0,0,0,0,0,0,0,0,1,1,0,0,0,0,0,0,0,1,0,0,1,0,0,0,0,0,0,0,0,0,0,0,0,0,0,0,0,0],"id":1,"left_children":[1,3,5,7,9,11,13,15,-1,17,19,-1,21,-1,-1,23,25,27,29,31,-1,-1,-1,33,35,37,39,41,43,-1,-1,-1,-1,-1,-1,-1,-1,-1,-1,-1,-1,-1,-1,-1,-1],"loss_changes":[2.6718994E2,5.0825684E1,1.6674072E1,1.6859375E1,1.820134E1,6.829544E0,3.3297412E0,1.0776367E1,0E0,1.3847736E1,4.378087E0,0E0,8.412018E-1,0E0,0E0,8.844788E0,6.890625E0,1.110577E1,1.3323886E0,5.4387903E-1,0E0,0E0,0E0,2.3945618E0,7.5390263E0,4.854492E0,7.5003114E0,2.3681407E0,2.4500885E0,0E0,0E0,0E0,0E0,0E0,0E0,0E0,0E0,0E0,0E0,0E0,0E0,0E0,0E0,0E0,0E0],"parents":[2147483647,0,0,1,1,2,2,3,3,4,4,5,5,6,6,7,7,9,9,10,10,12,12,15,15,16,16,17,17,18,18,19,19,23,23,24,24,25,25,26,26,27,27,28,28],"right_children":[2,4,6,8,10,12,14,16,-1,18,20,-1,22,-1,-1,24,26,28,30,32,-1,-1,-1,34,36,38,40,42,44,-1,-1,-1,-1,-1,-1,-1,-1,-1,-1,-1,-1,-1,-1,-1,-1],"split_conditions":[3.8983234E5,5.702E3,3.4E1,5.274163E5,7.5E-1,2.01E2,3.9E1,2.4E1,1.5378231E-1,1.3E1,4E0,7.1041934E-2,3.7E1,-5.8765918E-2,1.2383664E-1,8.888889E-1,1E1,6.58E2,4E0,4.6E1,8.5256144E-2,4.1238308E-1,1.2148052E-1,4.62536E1,1E1,1.8571428E0,1.2E1,5E0,1.6571E5,3.710046E-2,-7.2103314E-2,-9.503857E-2,-7.864318E-3,-6.047633E-2,-1.0046333E-1,-6.301652E-2,5.70351E-2,-1.1012429E-1,-1.0145938E-1,-6.1926764E-2,1.4929146E-1,9.060718E-2,-6.0810316E-2,7.409542E-2,3.3052146E-1],"split_indices":[91,9,8,99,28,30,41,15,0,159,61,0,29,0,0,28,1,7,150,15,0,0,0,173,150,28,46,151,166,0,0,0,0,0,0,0,0,0,0,0,0,0,0,0,0],"split_type":[0,0,0,0,0,0,0,0,0,0,0,0,0,0,0,0,0,0,0,0,0,0,0,0,0,0,0,0,0,0,0,0,0,0,0,0,0,0,0,0,0,0,0,0,0],"sum_hessian":[5.021218E3,5.007566E3,1.3651853E1,4.990574E3,1.6991278E1,1.1478919E1,2.1729338E0,4.988925E3,1.6495966E0,9.65449E0,7.3367867E0,1.2289368E0,1.0249982E1,1.0625265E0,1.1104072E0,2.8334033E2,4.7055845E3,6.8239822E0,2.8305085E0,6.2594504E0,1.0773363E0,9.092307E0,1.1576744E0,2.1920937E2,6.413096E1,4.699205E3,6.379261E0,2.1715193E0,4.652463E0,1.0777693E0,1.7527392E0,5.2349505E0,1.0244998E0,2.2238771E1,1.969706E2,5.9170937E1,4.960018E0,3.6733044E3,1.0259008E3,5.0507207E0,1.3285406E0,1.0184944E0,1.1530249E0,1.1719532E0,3.4805098E0],"tree_param":{"num_deleted":"0","num_feature":"176","num_nodes":"45","size_leaf_vector":"1"}},{"base_weights":[-1.0314147E0,-1.0442799E0,2.5030725E0,-1.0505432E0,5.678117E-1,2.7866476E0,4.11223E-1,-1.0517937E0,1.3421683E-1,1.2589636E0,-4.8835728E-1,3.829641E-2,2.9413402E0,-5.708989E-2,1.1264803E-1,-8.4193313E-1,-1.0644548E0,1.7903947E0,-3.0048442E-1,-8.183799E-1,8.805033E-2,3.1122693E-1,1.04979314E-1,-9.148903E-1,-3.6650673E-1,-1.0659676E0,-2.3950636E-2,-4.7977646E-3,2.273646E0,3.6023285E-2,-7.045558E-2,-9.326693E-2,-7.4903877E-3,-9.4754525E-2,-7.889896E-3,1.3217433E-1,-4.9592983E-2,-1.0861186E-1,-9.932548E-2,-5.916145E-2,1.3167809E-1,1.4847797E-2,2.8024858E-1],"categories":[],"categories_nodes":[],"categories_segments":[],"categories_sizes":[],"default_left":[0,1,1,0,1,0,0,0,0,0,0,0,1,0,0,1,1,0,0,0,0,0,0,1,0,0,0,0,0,0,0,0,0,0,0,0,0,0,0,0,0,0,0],"id":2,"left_children":[1,3,5,7,9,11,13,15,-1,17,19,-1,21,-1,-1,23,25,27,29,31,-1,-1,-1,33,35,37,39,-1,41,-1,-1,-1,-1,-1,-1,-1,-1,-1,-1,-1,-1,-1,-1],"loss_changes":[2.127998E2,4.7105957E1,8.972916E0,1.5141113E1,1.4101902E1,4.394783E0,2.8976815E0,1.1291992E1,0E0,1.0024887E1,4.3476067E0,0E0,1.1949615E0,0E0,0E0,8.8832855E0,6.7783203E0,7.8217525E0,1.259194E0,5.238657E-1,0E0,0E0,0E0,6.1972046E0,8.745876E0,5.245117E0,6.3334126E0,0E0,7.3331604E0,0E0,0E0,0E0,0E0,0E0,0E0,0E0,0E0,0E0,0E0,0E0,0E0,0E0,0E0],"parents":[2147483647,0,0,1,1,2,2,3,3,4,4,5,5,6,6,7,7,9,9,10,10,12,12,15,15,16,16,17,17,18,18,19,19,23,23,24,24,25,25,26,26,28,28],"right_children":[2,4,6,8,10,12,14,16,-1,18,20,-1,22,-1,-1,24,26,28,30,32,-1,-1,-1,34,36,38,40,-1,42,-1,-1,-1,-1,-1,-1,-1,-1,-1,-1,-1,-1,-1,-1],"split_conditions":[3.8983234E5,5.702E3,3.4E1,5.274163E5,7.5E-1,1.81E2,3.9E1,2.4E1,1.3421683E-1,1.3E1,7E0,3.829641E-2,8.189E3,-5.708989E-2,1.1264803E-1,6.666667E-1,1E1,7.158E3,2.009693E5,4.6E1,8.805033E-2,3.1122693E-1,1.04979314E-1,1.02511625E5,2.0763451E-1,1.8571428E0,1.2E1,-4.7977646E-3,6.58E2,3.6023285E-2,-7.045558E-2,-9.326693E-2,-7.4903877E-3,-9.4754525E-2,-7.889896E-3,1.3217433E-1,-4.9592983E-2,-1.0861186E-1,-9.932548E-2,-5.916145E-2,1.3167809E-1,1.4847797E-2,2.8024858E-1],"split_indices":[91,9,8,99,28,30,41,15,0,159,61,0,11,0,0,27,1,11,166,15,0,0,0,169,175,28,46,0,7,0,0,0,0,0,0,0,0,0,0,0,0,0,0],"split_type":[0,0,0,0,0,0,0,0,0,0,0,0,0,0,0,0,0,0,0,0,0,0,0,0,0,0,0,0,0,0,0,0,0,0,0,0,0,0,0,0,0,0,0],"sum_hessian":[4.6213423E3,4.6052837E3,1.6058163E1,4.5878076E3,1.747613E1,1.3848665E1,2.2094967E0,4.5859717E3,1.8362356E0,1.0447395E1,7.0287347E0,1.047517E0,1.2801148E1,1.016106E0,1.1933908E0,2.647754E2,4.3211963E3,7.6815653E0,2.7658303E0,5.9873676E0,1.0413669E0,1.1148372E1,1.6527765E0,2.2874823E2,3.602718E1,4.314898E3,6.2979856E0,1.7864231E0,5.895142E0,1.0907624E0,1.6750679E0,4.969041E0,1.018327E0,2.2002048E2,8.727747E0,1.9092702E0,3.411791E1,3.3676743E3,9.4722375E2,4.8171487E0,1.4808366E0,1.4298759E0,4.465266E0],"tree_param":{"num_deleted":"0","num_feature":"176","num_nodes":"43","size_leaf_vector":"1"}},{"base_weights":[-1.01392E0,-1.0273014E0,2.066433E0,-1.0339168E0,5.075174E-1,2.2054703E0,-1.3275993E-2,-1.0352514E0,1.180568E0,1.0842112E0,-4.6031004E-1,2.4473364E0,1.878978E-2,-8.136648E-1,-1.0488756E0,1.8846436E-1,-1.1269251E-2,1.5087467E0,-2.8513953E-1,-8.01585E-1,9.051527E-2,2.5252566E-1,7.2190806E-2,-9.198904E-1,-4.6256644E-1,-1.0594028E0,-8.580526E-1,1.8266754E0,-5.806194E-2,3.5544913E-2,-6.9039784E-2,-9.218034E-2,-5.761664E-3,-1.00230135E-1,-6.8869054E-2,-1.2595545E-2,-8.5646324E-2,-1.0629713E-1,-7.293E-2,-8.858346E-2,4.402482E-2,9.6864905E-3,2.177283E-1],"categories":[],"categories_nodes":[],"categories_segments":[],"categories_sizes":[],"default_left":[0,1,1,0,1,1,0,0,0,0,0,0,0,1,0,0,0,0,0,0,0,0,0,0,0,0,1,0,0,0,0,0,0,0,0,0,0,0,0,0,0,0,0],"id":3,"left_children":[1,3,5,7,9,11,-1,13,15,17,19,21,-1,23,25,-1,-1,27,29,31,-1,-1,-1,33,35,37,39,41,-1,-1,-1,-1,-1,-1,-1,-1,-1,-1,-1,-1,-1,-1,-1],"loss_changes":[1.7736035E2,4.3510254E1,6.0169296E0,1.3680176E1,1.1014548E1,8.159882E0,0E0,1.1868164E1,2.949605E0,7.466526E0,4.3307686E0,2.8644562E-1,0E0,8.843735E0,7.0585938E0,0E0,0E0,7.303545E0,1.2073544E0,5.4790735E-1,0E0,0E0,0E0,2.925949E0,7.813074E0,3.647461E0,8.059265E0,4.8824654E0,0E0,0E0,0E0,0E0,0E0,0E0,0E0,0E0,0E0,0E0,0E0,0E0,0E0,0E0,0E0],"parents":[2147483647,0,0,1,1,2,2,3,3,4,4,5,5,7,7,8,8,9,9,10,10,11,11,13,13,14,14,17,17,18,18,19,19,23,23,24,24,25,25,26,26,27,27],"right_children":[2,4,6,8,10,12,-1,14,16,18,20,22,-1,24,26,-1,-1,28,30,32,-1,-1,-1,34,36,38,40,42,-1,-1,-1,-1,-1,-1,-1,-1,-1,-1,-1,-1,-1,-1,-1],"split_conditions":[3.8983234E5,5.702E3,1.831886E2,5.274163E5,7.5E-1,3.4E1,-1.3275993E-2,2.4E1,6E0,1.3E1,3E0,1E0,1.878978E-2,8.888889E-1,5.000505E3,1.8846436E-1,-1.1269251E-2,2E0,2.018E5,2.369851E6,9.051527E-2,2.5252566E-1,7.2190806E-2,1.826E3,3E0,2.041E3,1E1,7.158E3,-5.806194E-2,3.5544913E-2,-6.9039784E-2,-9.218034E-2,-5.761664E-3,-1.00230135E-1,-6.8869054E-2,-1.2595545E-2,-8.5646324E-2,-1.0629713E-1,-7.293E-2,-8.858346E-2,4.402482E-2,9.6864905E-3,2.177283E-1],"split_indices":[91,9,173,99,28,8,0,15,20,159,62,17,0,28,93,0,0,83,154,154,0,0,0,2,24,2,1,11,0,0,0,0,0,0,0,0,0,0,0,0,0,0,0],"split_type":[0,0,0,0,0,0,0,0,0,0,0,0,0,0,0,0,0,0,0,0,0,0,0,0,0,0,0,0,0,0,0,0,0,0,0,0,0,0,0,0,0,0,0],"sum_hessian":[4.250298E3,4.2325776E3,1.7720396E1,4.2147373E3,1.7840204E1,1.6664011E1,1.0563852E0,4.2127314E3,2.0061069E0,1.110367E1,6.7365346E0,1.468997E1,1.9740409E0,2.4753441E2,3.9651968E3,1.0028536E0,1.0032532E0,8.398205E0,2.7054658E0,5.7198973E0,1.0166373E0,1.3611713E1,1.0782561E0,1.8879424E2,5.874018E1,3.753571E3,2.1162581E2,7.3981857E0,1.0000187E0,1.0959744E0,1.6094913E0,4.71841E0,1.0014869E0,1.3672395E2,5.2070274E1,3.2384903E1,2.635528E1,3.711232E3,4.233897E1,2.075032E2,4.122603E0,1.461885E0,5.9363008E0],"tree_param":{"num_deleted":"0","num_feature":"176","num_nodes":"43","size_leaf_vector":"1"}},{"base_weights":[-9.9726355E-1,-1.0111002E0,1.761284E0,-1.0180647E0,4.5183286E-1,1.9479351E0,2.5212517E-1,-1.0194913E0,1.0762715E0,8.979508E-1,-5.066601E-1,2.059326E0,2.1864073E-2,-7.1841456E-2,1.2594275E-1,-8.259973E-1,-1.0372735E0,1.7044921E-1,-1.1816724E-2,1.2509729E0,-3.1091532E-1,-9.118416E-2,8.297645E-2,3.367347E-2,2.1571035E0,-9.114809E-1,-2.8084302E-1,-1.0390728E0,1.5327763E-2,1.5120213E0,-5.847413E-2,4.2098477E-2,-7.2043024E-2,1.342278E0,2.4539343E-1,-9.932121E-2,-6.741555E-2,1.0681748E-1,-4.71321E-2,-1.05947904E-1,-9.563791E-2,1.205884E-1,-5.6152195E-2,2.0332811E-2,1.9484647E-1,2.743542E-2,1.7782812E-1],"categories":[],"categories_nodes":[],"categories_segments":[],"categories_sizes":[],"default_left":[0,1,1,0,1,0,0,0,0,0,0,0,0,0,0,1,1,0,0,0,0,0,0,0,0,0,0,1,0,0,0,0,0,0,0,0,0,0,0,0,0,0,0,0,0,0,0],"id":4,"left_children":[1,3,5,7,9,11,13,15,17,19,21,23,-1,-1,-1,25,27,-1,-1,29,31,-1,-1,-1,33,35,37,39,41,43,-1,-1,-1,45,-1,-1,-1,-1,-1,-1,-1,-1,-1,-1,-1,-1,-1],"loss_changes":[1.5096313E2,4.0089844E1,5.106373E0,1.2663086E1,8.631521E0,2.9275818E0,4.1659985E0,1.2456787E1,2.543751E0,6.111473E0,4.391452E0,2.0283966E0,0E0,0E0,0E0,1.5149429E1,6.7199707E0,0E0,0E0,5.9530354E0,1.4517579E0,0E0,0E0,0E0,4.0476227E-1,4.864746E0,1.2389097E1,4.949951E0,5.5024033E0,5.052534E0,0E0,0E0,0E0,2.441186E0,0E0,0E0,0E0,0E0,0E0,0E0,0E0,0E0,0E0,0E0,0E0,0E0,0E0],"parents":[2147483647,0,0,1,1,2,2,3,3,4,4,5,5,6,6,7,7,8,8,9,9,10,10,11,11,15,15,16,16,19,19,20,20,24,24,25,25,26,26,27,27,28,28,29,29,33,33],"right_children":[2,4,6,8,10,12,14,16,18,20,22,24,-1,-1,-1,26,28,-1,-1,30,32,-1,-1,-1,34,36,38,40,42,44,-1,-1,-1,46,-1,-1,-1,-1,-1,-1,-1,-1,-1,-1,-1,-1,-1],"split_conditions":[3.8983234E5,5.702E3,8.192E3,5.274163E5,8E0,2.1666667E0,1E0,1.9E1,7E0,1.3E1,3E0,1.751017E4,2.1864073E-2,-7.1841456E-2,1.2594275E-1,5E0,1E1,1.7044921E-1,-1.1816724E-2,2E0,9E0,-9.118416E-2,8.297645E-2,3.367347E-2,1E0,1.826E3,1E0,1.8571428E0,2.8E1,6E0,-5.847413E-2,4.2098477E-2,-7.2043024E-2,1.692E3,2.4539343E-1,-9.932121E-2,-6.741555E-2,1.0681748E-1,-4.71321E-2,-1.05947904E-1,-9.563791E-2,1.205884E-1,-5.6152195E-2,2.0332811E-2,1.9484647E-1,2.743542E-2,1.7782812E-1],"split_indices":[91,9,11,99,29,27,3,160,21,159,62,101,0,0,0,29,1,0,0,83,160,0,0,0,156,2,25,28,12,150,0,0,0,88,0,0,0,0,0,0,0,0,0,0,0,0,0],"split_type":[0,0,0,0,0,0,0,0,0,0,0,0,0,0,0,0,0,0,0,0,0,0,0,0,0,0,0,0,0,0,0,0,0,0,0,0,0,0,0,0,0,0,0,0,0,0,0],"sum_hessian":[3.9074556E3,3.8885842E3,1.8871384E1,3.8704624E3,1.8121954E1,1.6535543E1,2.3358405E0,3.8683408E3,2.1215699E0,1.2409349E1,5.7126045E0,1.535558E1,1.179963E0,1.3356906E0,1.0001497E0,3.2957532E2,3.5387654E3,1.110483E0,1.0110868E0,9.577597E0,2.8317523E0,4.627366E0,1.0852388E0,1.0634887E0,1.4292091E1,2.8432013E2,4.5255173E1,3.5327395E3,6.026018E0,8.5395565E0,1.0380403E0,1.0059223E0,1.8258299E0,5.2907004E0,9.001391E0,2.0911812E2,7.520202E1,5.0291896E0,4.0225983E1,2.8240425E3,7.086969E2,1.6108766E0,4.4151416E0,2.5022707E0,6.0372863E0,2.0061612E0,3.2845395E0],"tree_param":{"num_deleted":"0","num_feature":"176","num_nodes":"47","size_leaf_vector":"1"}},{"base_weights":[-9.811383E-1,-9.974438E-1,1.2990944E0,-1.0045117E0,3.4978265E-1,1.5286441E0,-5.620028E-1,-7.546503E-1,-1.0204624E0,8.2398087E-1,-5.4958797E-1,-6.860692E-2,1.6827326E0,-8.724796E-3,-7.12313E-2,-8.7199163E-1,-3.916161E-1,-1.0325528E0,-8.0303127E-1,1.0305271E0,-6.2880844E-2,1.8980108E-1,-8.9302346E-2,-1.7662494E-2,1.7979864E0,-4.2529932E-1,-9.215661E-1,2.3126721E-1,-6.268617E-1,-1.0367532E0,-6.5695566E-1,-2.0456083E-1,-8.6956465E-1,1.3313007E0,-1.6931686E-1,8.53185E-2,-5.726855E-2,1.9227326E0,2.7357042E-2,-8.2537755E-2,2.606218E-2,-9.387403E-2,-1.4270251E-2,-1.0434041E-2,1.898164E-1,-6.902381E-2,8.340347E-2,-1.0512791E-1,-9.6027575E-2,-7.748732E-2,1.0736813E-1,-4.6002414E-2,1.5599577E-1,-8.904907E-2,4.2989682E-2,8.966603E-4,1.5944345E-1,3.9332967E-2,-6.0947925E-2,1.9945131E-1,5.4789763E-2],"categories":[],"categories_nodes":[],"categories_segments":[],"categories_sizes":[],"default_left":[0,1,1,0,1,0,0,1,0,0,0,0,1,0,0,0,0,0,0,0,0,0,0,0,0,0,0,0,0,0,0,0,1,0,0,0,0,1,0,0,0,0,0,0,0,0,0,0,0,0,0,0,0,0,0,0,0,0,0,0,0],"id":5,"left_children":[1,3,5,7,9,11,13,15,17,19,21,-1,23,-1,-1,25,27,29,31,33,-1,35,-1,-1,37,39,41,43,45,47,49,51,53,55,57,-1,-1,59,-1,-1,-1,-1,-1,-1,-1,-1,-1,-1,-1,-1,-1,-1,-1,-1,-1,-1,-1,-1,-1,-1,-1],"loss_changes":[1.3484424E2,3.431665E1,1.1939758E1,1.3372559E1,8.708423E0,9.125668E0,1.9325304E-1,8.893158E0,7.932129E0,4.571334E0,2.018805E0,0E0,5.059597E0,0E0,0E0,3.2178955E0,8.170206E0,4.2946777E0,6.991905E0,4.493287E0,0E0,2.0741224E0,0E0,0E0,3.4533997E0,5.1934314E0,1.8172607E0,9.005934E0,4.2813377E0,2.4533691E0,8.506897E0,9.427743E0,4.780945E0,3.3151436E0,1.046476E0,0E0,0E0,7.9974365E-1,0E0,0E0,0E0,0E0,0E0,0E0,0E0,0E0,0E0,0E0,0E0,0E0,0E0,0E0,0E0,0E0,0E0,0E0,0E0,0E0,0E0,0E0,0E0],"parents":[2147483647,0,0,1,1,2,2,3,3,4,4,5,5,6,6,7,7,8,8,9,9,10,10,12,12,15,15,16,16,17,17,18,18,19,19,21,21,24,24,25,25,26,26,27,27,28,28,29,29,30,30,31,31,32,32,33,33,34,34,37,37],"right_children":[2,4,6,8,10,12,14,16,18,20,22,-1,24,-1,-1,26,28,30,32,34,-1,36,-1,-1,38,40,42,44,46,48,50,52,54,56,58,-1,-1,60,-1,-1,-1,-1,-1,-1,-1,-1,-1,-1,-1,-1,-1,-1,-1,-1,-1,-1,-1,-1,-1,-1,-1],"split_conditions":[1.51E2,5.702E3,1.3944189E6,2.4E1,7.5E-1,1E0,2.4E1,8.888889E-1,5.000505E3,2E0,4.1E1,-6.860692E-2,3E0,-8.724796E-3,-7.12313E-2,4.62536E1,2.878678E2,2.041E3,3E0,1.3E1,-6.2880844E-2,5E0,-8.9302346E-2,-1.7662494E-2,5E0,1.4E3,1.13887E6,5E0,2.114E4,2.5E0,1.594011E4,3E0,1E1,7.158E3,9E0,8.53185E-2,-5.726855E-2,3.4E1,2.7357042E-2,-8.2537755E-2,2.606218E-2,-9.387403E-2,-1.4270251E-2,-1.0434041E-2,1.898164E-1,-6.902381E-2,8.340347E-2,-1.0512791E-1,-9.6027575E-2,-7.748732E-2,1.0736813E-1,-4.6002414E-2,1.5599577E-1,-8.904907E-2,4.2989682E-2,8.966603E-4,1.5944345E-1,3.9332967E-2,-6.0947925E-2,1.9945131E-1,5.4789763E-2],"split_indices":[30,9,172,15,28,158,38,28,93,83,10,0,151,0,0,173,173,2,16,159,0,159,0,0,25,2,153,36,105,28,107,152,1,11,160,0,0,8,0,0,0,0,0,0,0,0,0,0,0,0,0,0,0,0,0,0,0,0,0,0,0],"split_type":[0,0,0,0,0,0,0,0,0,0,0,0,0,0,0,0,0,0,0,0,0,0,0,0,0,0,0,0,0,0,0,0,0,0,0,0,0,0,0,0,0,0,0,0,0,0,0,0,0,0,0,0,0,0,0,0,0,0,0,0,0],"sum_hessian":[3.5909082E3,3.5659712E3,2.4937017E1,3.5476138E3,1.8357473E1,2.2357994E1,2.5790246E0,2.1578096E2,3.3318328E3,1.2074795E1,6.282678E0,1.2297903E0,2.1128202E1,1.0002351E0,1.5787895E0,1.6201263E2,5.3768326E1,3.1527705E3,1.7906233E2,1.0826258E1,1.2485367E0,2.134537E0,4.148141E0,1.2021271E0,1.9926077E1,1.7141106E1,1.4487152E2,1.474457E1,3.9023758E1,3.1161616E3,3.660886E1,1.832278E1,1.6073955E2,8.568714E0,2.2575433E0,1.0778381E0,1.056699E0,1.8177298E1,1.7487783E0,1.0697971E1,6.4431343E0,1.4154515E2,3.326373E0,1.305377E1,1.6907996E0,3.7906815E1,1.1169443E0,2.6080503E3,5.081113E2,3.479065E1,1.8182113E0,1.6651329E1,1.6714523E0,1.5850182E2,2.2377365E0,1.5937369E0,6.9749775E0,1.0376039E0,1.2199396E0,1.6846983E1,1.3303145E0],"tree_param":{"num_deleted":"0","num_feature":"176","num_nodes":"61","size_leaf_vector":"1"}},{"base_weights":[-9.655573E-1,-9.823322E-1,1.1482992E0,-9.897379E-1,3.123034E-1,2.7198797E-1,1.5841638E0,-7.705393E-1,-1.0105567E0,7.2805345E-1,-5.246484E-1,-5.7191575E-1,9.7169685E-1,1.7034917E0,9.168022E-3,-8.656103E-1,-2.1288648E-1,-1.0356287E0,-9.112252E-1,1.0177213E0,-2.0113453E-1,1.770188E-1,-8.7287836E-2,-8.5271895E-2,2.948434E-2,1.4046005E0,-2.978893E-2,1.814463E-1,4.816481E-2,-9.5914286E-1,-6.037934E-1,6.063187E-1,-5.245725E-1,-1.0372142E0,8.830291E-3,-9.526393E-1,-6.229096E-1,-6.500726E-2,1.3008724E0,7.2431825E-2,-7.791532E-2,8.646747E-2,-5.809201E-2,1.9847352E-2,1.810231E-1,-9.7445555E-2,9.0253E-3,6.9424145E-2,-6.750395E-2,2.6515952E-1,-1.0471298E-2,8.708323E-2,-6.266766E-2,-1.0380192E-1,-1.814635E-2,-7.629869E-2,1.2236637E-1,-8.224496E-2,-1.00859456E-1,-6.900741E-2,1.4864288E-1,1.5389574E-1,1.7130027E-3],"categories":[],"categories_nodes":[],"categories_segments":[],"categories_sizes":[],"default_left":[0,1,0,0,1,1,1,1,1,0,0,0,0,1,0,0,0,0,0,0,0,0,0,0,0,0,0,0,0,1,0,0,0,0,1,0,1,0,0,0,0,0,0,0,0,0,0,0,0,0,0,0,0,0,0,0,0,0,0,0,0,0,0],"id":6,"left_children":[1,3,5,7,9,11,13,15,17,19,21,23,25,27,-1,29,31,33,35,37,39,41,-1,-1,-1,43,-1,-1,-1,45,47,49,51,53,55,57,59,-1,61,-1,-1,-1,-1,-1,-1,-1,-1,-1,-1,-1,-1,-1,-1,-1,-1,-1,-1,-1,-1,-1,-1,-1,-1],"loss_changes":[1.1816992E2,3.1711182E1,9.671066E0,1.408374E1,7.128602E0,6.4561877E0,2.9525719E0,1.5015884E1,6.4558105E0,3.8040943E0,1.8688256E0,1.5070708E0,3.6245518E0,1.3099289E0,0E0,5.411194E0,1.13193035E1,3.9257812E0,6.655792E0,5.737938E0,2.7110918E0,2.1485076E0,0E0,0E0,0E0,1.8546066E0,0E0,0E0,0E0,2.9568176E0,6.6727676E0,1.8221304E1,5.0689096E0,1.4382324E0,5.224529E0,3.0239868E0,1.2238209E1,0E0,2.7822895E0,0E0,0E0,0E0,0E0,0E0,0E0,0E0,0E0,0E0,0E0,0E0,0E0,0E0,0E0,0E0,0E0,0E0,0E0,0E0,0E0,0E0,0E0,0E0,0E0],"parents":[2147483647,0,0,1,1,2,2,3,3,4,4,5,5,6,6,7,7,8,8,9,9,10,10,11,11,12,12,13,13,15,15,16,16,17,17,18,18,19,19,20,20,21,21,25,25,29,29,30,30,31,31,32,32,33,33,34,34,35,35,36,36,38,38],"right_children":[2,4,6,8,10,12,14,16,18,20,22,24,26,28,-1,30,32,34,36,38,40,42,-1,-1,-1,44,-1,-1,-1,46,48,50,52,54,56,58,60,-1,62,-1,-1,-1,-1,-1,-1,-1,-1,-1,-1,-1,-1,-1,-1,-1,-1,-1,-1,-1,-1,-1,-1,-1,-1],"split_conditions":[1.51E2,5.702E3,1.8E1,1.9E1,7.5E-1,1.5E1,3.4E1,5E0,1.8571428E0,3.01E5,4.1E1,1.9E1,1.2E1,8.189E3,9.168022E-3,1.826E3,1E0,3E1,1.827E3,3.36766E5,9.85932E1,3E0,-8.7287836E-2,-8.5271895E-2,2.948434E-2,3E0,-2.978893E-2,1.814463E-1,4.816481E-2,8.977988E-1,3E5,5.702E3,7E0,1.2902796E5,2.8E1,4E0,1.310281E0,-6.500726E-2,1.07E6,7.2431825E-2,-7.791532E-2,8.646747E-2,-5.809201E-2,1.9847352E-2,1.810231E-1,-9.7445555E-2,9.0253E-3,6.9424145E-2,-6.750395E-2,2.6515952E-1,-1.0471298E-2,8.708323E-2,-6.266766E-2,-1.0380192E-1,-1.814635E-2,-7.629869E-2,1.2236637E-1,-8.224496E-2,-1.00859456E-1,-6.900741E-2,1.4864288E-1,1.5389574E-1,1.7130027E-3],"split_indices":[30,9,81,160,28,1,8,29,28,153,10,54,28,11,0,2,24,33,2,0,173,159,0,0,0,155,0,0,0,175,0,9,160,99,12,20,175,0,154,0,0,0,0,0,0,0,0,0,0,0,0,0,0,0,0,0,0,0,0,0,0,0,0],"split_type":[0,0,0,0,0,0,0,0,0,0,0,0,0,0,0,0,0,0,0,0,0,0,0,0,0,0,0,0,0,0,0,0,0,0,0,0,0,0,0,0,0,0,0,0,0,0,0,0,0,0,0,0,0,0,0,0,0,0,0,0,0,0,0],"sum_hessian":[3.2996846E3,3.2742366E3,2.5448114E1,3.2558477E3,1.838894E1,8.992532E0,1.6455584E1,2.8570526E2,2.9701423E3,1.2372901E1,6.0160403E0,4.1590405E0,4.833491E0,1.5106406E1,1.3491769E0,2.4361969E2,4.208556E1,2.364023E3,6.061195E2,9.359776E0,3.013125E0,2.1584742E0,3.857566E0,3.1535773E0,1.0054631E0,3.5251424E0,1.3083485E0,1.3403996E1,1.7024099E0,1.775335E2,6.6086205E1,1.1338711E1,3.0746851E1,2.3604465E3,3.5763178E0,5.279761E2,7.8143456E1,1.1703606E0,8.189415E0,1.0611062E0,1.9520189E0,1.057873E0,1.1006011E0,1.2619824E0,2.26316E0,1.7505058E2,2.4829056E0,2.983602E0,6.3102604E1,2.220949E0,9.117763E0,1.5830626E0,2.9163788E1,2.3580154E3,2.4311914E0,2.4143536E0,1.1619643E0,1.6342874E2,3.645473E2,7.638412E1,1.7593361E0,6.7405047E0,1.4489107E0],"tree_param":{"num_deleted":"0","num_feature":"176","num_nodes":"63","size_leaf_vector":"1"}},{"base_weights":[-9.5017844E-1,-9.6743184E-1,1.0433263E0,-9.7519463E-1,2.799215E-1,1.2285296E0,-5.444569E-1,-6.950706E-1,-9.9385464E-1,6.172903E-1,-5.855371E-1,-6.6477396E-2,1.3540094E0,-9.439371E-3,-6.9035165E-2,-8.240962E-1,-3.213717E-1,-1.008072E0,-7.459652E-1,7.9164964E-1,-6.4212345E-2,-8.7344706E-2,4.115724E-2,5.308676E-1,1.596945E0,-9.2996246E-1,-5.5282223E-1,-4.4620907E-1,8.7232924E-1,-1.0130267E0,-5.839039E-1,-1.3044955E-1,-8.2012177E-1,9.912785E-1,-4.0205535E-2,1.360523E-1,-4.2531297E-2,1.8431632E-1,9.7818035E-1,-9.477517E-2,3.4169261E-3,7.584541E-2,-6.477883E-2,1.31047135E-2,-7.13483E-2,-4.4344895E-2,2.0182674E-1,-1.02940716E-1,-9.202438E-2,-7.1453065E-2,1.03003345E-1,-3.934886E-2,1.4327167E-1,-8.440533E-2,4.746118E-2,-3.0308697E-2,1.1994266E-1,-7.645962E-2,7.127821E-2,1.5885532E-3,1.2636727E-1],"categories":[],"categories_nodes":[],"categories_segments":[],"categories_sizes":[],"default_left":[0,1,1,0,1,0,0,1,0,0,0,0,0,0,0,0,1,0,0,0,0,0,0,0,0,0,0,0,0,0,0,0,1,0,0,0,0,0,0,0,0,0,0,0,0,0,0,0,0,0,0,0,0,0,0,0,0,0,0,0,0],"id":7,"left_children":[1,3,5,7,9,11,13,15,17,19,21,-1,23,-1,-1,25,27,29,31,33,-1,-1,-1,35,37,39,41,43,45,47,49,51,53,55,-1,-1,57,-1,59,-1,-1,-1,-1,-1,-1,-1,-1,-1,-1,-1,-1,-1,-1,-1,-1,-1,-1,-1,-1,-1,-1],"loss_changes":[1.0532617E2,2.9394043E1,8.463108E0,1.4933105E1,6.0193496E0,6.6122017E0,1.6213143E-1,8.896439E0,9.116211E0,3.6769214E0,2.0671055E0,0E0,3.7272568E0,0E0,0E0,3.5237122E0,7.900345E0,4.9682617E0,7.0011444E0,3.5256424E0,0E0,0E0,0E0,3.2506723E0,8.124771E-1,1.7417603E0,5.7130823E0,7.235882E0,8.600729E0,3.024414E0,7.67295E0,7.9376254E0,4.7011414E0,3.4702196E0,0E0,0E0,3.2382796E0,0E0,1.907824E0,0E0,0E0,0E0,0E0,0E0,0E0,0E0,0E0,0E0,0E0,0E0,0E0,0E0,0E0,0E0,0E0,0E0,0E0,0E0,0E0,0E0,0E0],"parents":[2147483647,0,0,1,1,2,2,3,3,4,4,5,5,6,6,7,7,8,8,9,9,10,10,12,12,15,15,16,16,17,17,18,18,19,19,23,23,24,24,25,25,26,26,27,27,28,28,29,29,30,30,31,31,32,32,33,33,36,36,38,38],"right_children":[2,4,6,8,10,12,14,16,18,20,22,-1,24,-1,-1,26,28,30,32,34,-1,-1,-1,36,38,40,42,44,46,48,50,52,54,56,-1,-1,58,-1,60,-1,-1,-1,-1,-1,-1,-1,-1,-1,-1,-1,-1,-1,-1,-1,-1,-1,-1,-1,-1,-1,-1],"split_conditions":[1.51E2,5.702E3,1.3944189E6,2.4E1,8E0,1E0,3.329188E4,8.888889E-1,5.000505E3,2E0,4E0,-6.6477396E-2,1.819431E4,-9.439371E-3,-6.9035165E-2,1.826E3,1E1,2.041E3,3E0,1.7E1,-6.4212345E-2,-8.7344706E-2,4.115724E-2,4.5E1,1.75E6,1.13887E6,3E5,1.2E1,1.421181E6,2.75E0,1.594011E4,3E0,1E1,3.36766E5,-4.0205535E-2,1.360523E-1,4.94639E5,1.8431632E-1,2.3E6,-9.477517E-2,3.4169261E-3,7.584541E-2,-6.477883E-2,1.31047135E-2,-7.13483E-2,-4.4344895E-2,2.0182674E-1,-1.02940716E-1,-9.202438E-2,-7.1453065E-2,1.03003345E-1,-3.934886E-2,1.4327167E-1,-8.440533E-2,4.746118E-2,-3.0308697E-2,1.1994266E-1,-7.645962E-2,7.127821E-2,1.5885532E-3,1.2636727E-1],"split_indices":[30,9,172,15,29,158,101,28,93,83,72,0,121,0,0,2,150,2,16,161,0,0,0,10,153,153,0,160,0,28,107,152,1,0,0,0,91,0,0,0,0,0,0,0,0,0,0,0,0,0,0,0,0,0,0,0,0,0,0,0,0],"split_type":[0,0,0,0,0,0,0,0,0,0,0,0,0,0,0,0,0,0,0,0,0,0,0,0,0,0,0,0,0,0,0,0,0,0,0,0,0,0,0,0,0,0,0,0,0,0,0,0,0,0,0,0,0,0,0,0,0,0,0,0,0],"sum_hessian":[3.0319365E3,3.0064312E3,2.5505316E1,2.9880532E3,1.8377794E1,2.3043697E1,2.4616177E0,1.890022E2,2.799051E3,1.3429515E1,4.9482794E0,1.1651691E0,2.1878529E1,1.0058185E0,1.4557993E0,1.3959836E2,4.940384E1,2.6443232E3,1.5472797E2,1.2122616E1,1.3068997E0,3.9358459E0,1.0124335E0,5.711478E0,1.6167051E1,9.866546E1,4.093289E1,4.5293262E1,4.110577E0,2.612419E3,3.190412E1,1.6933702E1,1.3779427E2,1.0531038E1,1.5915767E0,1.773154E0,3.938324E0,1.0149568E1,6.0174828E0,9.6894646E1,1.7708179E0,2.2924535E0,3.8640438E1,1.4495559E1,3.0797703E1,2.1988547E0,1.9117224E0,2.2118352E3,4.0058395E2,3.0030802E1,1.8733193E0,1.51351385E1,1.7985642E0,1.356353E2,2.1589677E0,1.395712E0,9.135326E0,2.0071948E0,1.9311292E0,1.6183236E0,4.3991594E0],"tree_param":{"num_deleted":"0","num_feature":"176","num_nodes":"61","size_leaf_vector":"1"}},{"base_weights":[-9.349258E-1,-9.5264393E-1,9.5233005E-1,-9.607723E-1,2.4657655E-1,1.1206435E0,-5.253212E-1,-7.140346E-1,-9.8510116E-1,5.762791E-1,-4.8266792E-1,-6.4455666E-2,1.2346383E0,-9.660861E-3,-6.671765E-2,-8.1918347E-1,-1.4692017E-1,-1.0147017E0,-8.705307E-1,8.777603E-1,-1.1933085E-1,1.7221087E-1,-8.407604E-2,4.8824987E-1,1.4589932E0,-9.251964E-1,-5.373224E-1,-7.83817E-1,2.95251E-1,-1.0165735E0,7.1956925E-2,-9.1797835E-1,-5.5182004E-1,-5.8122676E-2,1.1174642E0,-5.089046E-1,7.236541E-2,8.027961E-2,-5.6379676E-2,7.881521E-1,-6.1950624E-2,1.6768706E-1,9.027994E-1,-9.429602E-2,1.5554114E-2,-6.2681206E-2,6.539296E-2,4.33394E-2,-8.899181E-2,1.1667255E-1,-1.8363984E-2,-1.0175289E-1,-1.0850913E-2,1.205666E-1,-7.361961E-2,-7.703347E-2,-9.828218E-2,-6.255036E-2,1.3878612E-1,1.228566E-2,1.3822186E-1,-7.801131E-2,9.177918E-3,9.535336E-3,1.4782135E-1,1.490157E-3,1.1677613E-1],"categories":[],"categories_nodes":[],"categories_segments":[],"categories_sizes":[],"default_left":[0,1,1,0,1,0,0,1,1,0,0,0,0,0,0,0,0,0,0,0,0,0,0,0,0,1,1,0,0,0,0,0,1,0,0,1,0,0,0,0,0,0,0,0,0,0,0,0,0,0,0,0,0,0,0,0,0,0,0,0,0,0,0,0,0,0,0],"id":8,"left_children":[1,3,5,7,9,11,13,15,17,19,21,-1,23,-1,-1,25,27,29,31,33,35,37,-1,39,41,43,45,47,49,51,53,55,57,-1,59,61,-1,-1,-1,63,-1,-1,65,-1,-1,-1,-1,-1,-1,-1,-1,-1,-1,-1,-1,-1,-1,-1,-1,-1,-1,-1,-1,-1,-1,-1,-1],"loss_changes":[9.411548E1,2.71604E1,7.16107E0,1.5765869E1,4.940351E0,5.633789E0,1.4128977E-1,1.47803955E1,7.5773926E0,3.000733E0,1.6881994E0,0E0,3.126976E0,0E0,0E0,5.7951355E0,1.1581297E1,4.093628E0,7.3455505E0,4.060567E0,2.028588E0,1.9176431E0,0E0,2.747971E0,5.6142807E-1,3.0578156E0,6.7997913E0,2.5538635E0,1.0444978E1,1.6013184E0,4.857288E0,3.55542E0,1.084301E1,0E0,2.126235E0,7.305497E-1,0E0,0E0,0E0,2.6284428E0,0E0,0E0,1.6262636E0,0E0,0E0,0E0,0E0,0E0,0E0,0E0,0E0,0E0,0E0,0E0,0E0,0E0,0E0,0E0,0E0,0E0,0E0,0E0,0E0,0E0,0E0,0E0,0E0],"parents":[2147483647,0,0,1,1,2,2,3,3,4,4,5,5,6,6,7,7,8,8,9,9,10,10,12,12,15,15,16,16,17,17,18,18,19,19,20,20,21,21,23,23,24,24,25,25,26,26,27,27,28,28,29,29,30,30,31,31,32,32,34,34,35,35,39,39,42,42],"right_children":[2,4,6,8,10,12,14,16,18,20,22,-1,24,-1,-1,26,28,30,32,34,36,38,-1,40,42,44,46,48,50,52,54,56,58,-1,60,62,-1,-1,-1,64,-1,-1,66,-1,-1,-1,-1,-1,-1,-1,-1,-1,-1,-1,-1,-1,-1,-1,-1,-1,-1,-1,-1,-1,-1,-1,-1],"split_conditions":[1.51E2,5.702E3,1.3944189E6,1.9E1,7.5E-1,1E0,5E0,5E0,1.8571428E0,3.2749666E5,4.1E1,-6.4455666E-2,1.819431E4,-9.660861E-3,-6.671765E-2,1.826E3,7.31E2,3E1,1.827E3,8.81E2,1.3E1,3E0,-8.407604E-2,1.2E1,1.75E6,8.977988E-1,2.6047484E5,1.9657438E-1,1E0,1.2902796E5,3E0,4E0,1.310281E0,-5.8122676E-2,1.502484E5,6.58E2,7.236541E-2,8.027961E-2,-5.6379676E-2,1.721295E4,-6.1950624E-2,1.6768706E-1,2.3E6,-9.429602E-2,1.5554114E-2,-6.2681206E-2,6.539296E-2,4.33394E-2,-8.899181E-2,1.1667255E-1,-1.8363984E-2,-1.0175289E-1,-1.0850913E-2,1.205666E-1,-7.361961E-2,-7.703347E-2,-9.828218E-2,-6.255036E-2,1.3878612E-1,1.228566E-2,1.3822186E-1,-7.801131E-2,9.177918E-3,9.535336E-3,1.4782135E-1,1.490157E-3,1.1677613E-1],"split_indices":[30,9,172,160,28,158,41,29,28,166,10,0,121,0,0,2,2,33,2,2,151,159,0,28,153,175,166,175,24,99,25,20,175,0,166,7,0,0,0,102,0,0,0,0,0,0,0,0,0,0,0,0,0,0,0,0,0,0,0,0,0,0,0,0,0,0,0],"split_type":[0,0,0,0,0,0,0,0,0,0,0,0,0,0,0,0,0,0,0,0,0,0,0,0,0,0,0,0,0,0,0,0,0,0,0,0,0,0,0,0,0,0,0,0,0,0,0,0,0,0,0,0,0,0,0,0,0,0,0,0,0,0,0,0,0,0,0],"sum_hessian":[2.7864414E3,2.7610154E3,2.5425997E1,2.7426245E3,1.8390785E1,2.3042877E1,2.3831182E0,2.4888075E2,2.493744E3,1.2809275E1,5.58151E0,1.1154819E0,2.1927397E1,1.0104352E0,1.3726829E0,2.095783E2,3.9302456E1,1.9754958E3,5.18248E2,8.7535715E0,4.055703E0,2.1566043E0,3.4249058E0,5.801866E0,1.612553E1,1.5063815E2,5.894014E1,1.5788409E1,2.3514046E1,1.9721631E3,3.332718E0,4.4945566E2,6.879233E1,1.0341743E0,7.719397E0,3.044867E0,1.0108364E0,1.1126127E0,1.0439916E0,4.7928224E0,1.0090437E0,1.0138916E1,5.986614E0,1.4832762E2,2.3105345E0,5.5262512E1,3.6776268E0,1.0185608E0,1.4769849E1,7.829605E0,1.5684442E1,1.96997E3,2.1930828E0,1.1822844E0,2.1504335E0,1.4108835E2,3.083673E2,6.6927444E1,1.86488E0,1.9306244E0,5.788773E0,1.8919456E0,1.1529214E0,2.9596312E0,1.8331912E0,1.6186602E0,4.367954E0],"tree_param":{"num_deleted":"0","num_feature":"176","num_nodes":"67","size_leaf_vector":"1"}},{"base_weights":[-9.196674E-1,-9.3881255E-1,7.951394E-1,-9.4733465E-1,2.2813894E-1,-6.3073665E-1,1.0087783E0,-6.3456064E-1,-9.692307E-1,4.960264E-1,-5.3597856E-1,-7.5852804E-2,-1.0224993E-2,1.1177207E0,-6.4773865E-2,-7.3633456E-1,-1.16533644E-1,-1.0062951E0,-8.4411484E-1,6.4285517E-1,-6.1712064E-2,-8.439784E-2,4.0846404E-2,-3.0299684E-2,1.2169362E0,-7.8644305E-1,2.4908404E-1,3.0170047E-1,-8.0612636E-1,-1.0106117E0,-6.760173E-1,9.821194E-1,-8.5583E-1,-1.4628526E-2,9.6703357E-1,-1.519009E-2,1.2961733E0,-8.053614E-2,4.1499607E-2,1.6591701E-1,-5.3153902E-2,-1.6842272E-2,1.4542735E-1,-9.763789E-2,4.5643132E-2,-1.0135875E-1,-6.1935782E-2,2.5306731E-2,-9.127778E-2,1.7898545E-1,-5.6132462E-2,-8.727291E-2,1.074477E-2,6.9231585E-2,-6.269386E-2,-1.0941151E-2,1.2610714E-1,1.3760333E-1,-1.5869414E-2],"categories":[],"categories_nodes":[],"categories_segments":[],"categories_sizes":[],"default_left":[0,1,0,0,1,0,0,1,0,0,0,0,0,0,0,1,0,0,0,0,0,0,0,0,1,0,0,1,0,0,0,0,0,0,0,0,0,0,0,0,0,0,0,0,0,0,0,0,0,0,0,0,0,0,0,0,0,0,0],"id":9,"left_children":[1,3,5,7,9,11,13,15,17,19,21,-1,-1,23,-1,25,27,29,31,33,-1,-1,-1,-1,35,37,39,41,43,45,47,49,51,53,55,-1,57,-1,-1,-1,-1,-1,-1,-1,-1,-1,-1,-1,-1,-1,-1,-1,-1,-1,-1,-1,-1,-1,-1],"loss_changes":[8.487744E1,2.5424072E1,9.420382E0,1.6619873E1,4.1925316E0,2.1776247E-1,5.319216E0,8.747475E0,1.0048584E1,2.8030255E0,1.9330157E0,0E0,0E0,3.7881851E0,0E0,7.1011887E0,8.5205345E0,1.8939209E0,1.2463837E1,2.890881E0,0E0,0E0,0E0,0E0,2.6779366E0,3.3644714E0,9.166698E0,1.0319297E1,2.8331947E0,1.4476318E0,6.025503E0,5.902359E0,8.889893E0,2.7898018E0,3.0038967E0,0E0,2.742836E0,0E0,0E0,0E0,0E0,0E0,0E0,0E0,0E0,0E0,0E0,0E0,0E0,0E0,0E0,0E0,0E0,0E0,0E0,0E0,0E0,0E0,0E0],"parents":[2147483647,0,0,1,1,2,2,3,3,4,4,5,5,6,6,7,7,8,8,9,9,10,10,13,13,15,15,16,16,17,17,18,18,19,19,24,24,25,25,26,26,27,27,28,28,29,29,30,30,31,31,32,32,33,33,34,34,36,36],"right_children":[2,4,6,8,10,12,14,16,18,20,22,-1,-1,24,-1,26,28,30,32,34,-1,-1,-1,-1,36,38,40,42,44,46,48,50,52,54,56,-1,58,-1,-1,-1,-1,-1,-1,-1,-1,-1,-1,-1,-1,-1,-1,-1,-1,-1,-1,-1,-1,-1,-1],"split_conditions":[9.6E1,5.702E3,6.652269E4,2.4E1,8E0,5E0,1.08E2,6.666667E-1,1.8571428E0,2E0,3E0,-7.5852804E-2,-1.0224993E-2,1E0,-6.4773865E-2,1.02511625E5,1E1,3E0,5.3E1,6E0,-6.1712064E-2,-8.439784E-2,4.0846404E-2,-3.0299684E-2,3E0,5E0,1E0,7.63793E1,8E0,2.192E3,2E0,3.4E1,2.041E3,1E0,6.58E2,-1.519009E-2,4E0,-8.053614E-2,4.1499607E-2,1.6591701E-1,-5.3153902E-2,-1.6842272E-2,1.4542735E-1,-9.763789E-2,4.5643132E-2,-1.0135875E-1,-6.1935782E-2,2.5306731E-2,-9.127778E-2,1.7898545E-1,-5.6132462E-2,-8.727291E-2,1.074477E-2,6.9231585E-2,-6.269386E-2,-1.0941151E-2,1.2610714E-1,1.3760333E-1,-1.5869414E-2],"split_indices":[32,9,93,15,29,53,21,27,28,83,52,0,0,158,0,169,161,33,7,150,0,0,0,0,151,33,24,173,42,2,25,8,2,25,7,0,24,0,0,0,0,0,0,0,0,0,0,0,0,0,0,0,0,0,0,0,0,0,0],"split_type":[0,0,0,0,0,0,0,0,0,0,0,0,0,0,0,0,0,0,0,0,0,0,0,0,0,0,0,0,0,0,0,0,0,0,0,0,0,0,0,0,0,0,0,0,0,0,0,0,0,0,0,0,0,0,0,0,0,0,0],"sum_hessian":[2.5616074E3,2.5337712E3,2.7836035E1,2.5155886E3,1.8182804E1,3.3728042E0,2.446323E1,1.6654575E2,2.3490427E3,1.3722694E1,4.4601088E0,2.3655226E0,1.0072815E0,2.3258848E1,1.2043822E0,1.3884601E2,2.7699738E1,1.8067634E3,5.4227936E2,1.2496802E1,1.2258922E0,3.4434962E0,1.0166123E0,1.3841767E0,2.1874672E1,1.3231947E2,6.5265207E0,1.7592487E1,1.0107251E1,1.7814213E3,2.5342205E1,2.9285269E0,5.393508E2,4.442204E0,8.054599E0,1.1467793E0,2.0727892E1,1.3059279E2,1.7266972E0,1.924585E0,4.601936E0,1.310213E1,4.4903574E0,9.105997E0,1.0012537E0,1.7663955E3,1.502571E1,5.1325226E0,2.0209682E1,1.8176442E0,1.1108828E0,5.301443E2,9.206523E0,2.0011308E0,2.4410734E0,1.8628345E0,6.191764E0,1.9700678E1,1.0272143E0],"tree_param":{"num_deleted":"0","num_feature":"176","num_nodes":"59","size_leaf_vector":"1"}},{"base_weights":[-9.0438455E-1,-9.239084E-1,7.1967804E-1,-9.328008E-1,2.0692304E-1,-7.8195155E-2,8.936476E-1,-6.5635055E-1,-9.613034E-1,4.49054E-1,-5.1159906E-1,2.2022597E-1,1.1939951E0,-7.7055544E-1,-9.675629E-2,-9.9605936E-1,-8.303161E-1,5.8831775E-1,-6.0065597E-2,-8.239444E-2,4.0627047E-2,-4.9060062E-1,7.085047E-1,1.3226101E0,1.315822E-2,-8.915075E-1,-4.6194106E-1,-7.380294E-1,3.015951E-1,-1.0013285E0,-6.205607E-1,-8.8458574E-1,-4.8383614E-1,1.3131294E-1,9.629892E-1,2.4684664E-2,-7.834013E-2,1.1530422E0,-3.4164406E-2,1.5416634E-1,7.2446084E-1,-9.118461E-2,1.8477643E-2,-5.578785E-2,6.581506E-2,4.1572105E-2,-8.5372366E-2,1.3466354E-1,-7.781844E-3,-1.0045772E-1,-5.84498E-2,2.8360618E-2,-8.980695E-2,-7.149793E-2,-9.610658E-2,-5.6302693E-2,1.280966E-1,4.681876E-2,-7.406988E-2,-2.0508931E-3,1.2332956E-1,1.8451396E-2,1.5168047E-1,-3.2453176E-2,1.1049775E-1],"categories":[],"categories_nodes":[],"categories_segments":[],"categories_sizes":[],"default_left":[0,1,0,0,1,0,0,1,1,1,0,0,1,0,0,0,0,0,0,0,0,0,0,0,0,1,1,0,0,0,0,0,1,0,0,0,0,0,0,0,0,0,0,0,0,0,0,0,0,0,0,0,0,0,0,0,0,0,0,0,0,0,0,0,0],"id":10,"left_children":[1,3,5,7,9,-1,11,13,15,17,19,21,23,25,27,29,31,33,-1,-1,-1,35,37,39,-1,41,43,45,47,49,51,53,55,57,59,-1,-1,61,-1,-1,63,-1,-1,-1,-1,-1,-1,-1,-1,-1,-1,-1,-1,-1,-1,-1,-1,-1,-1,-1,-1,-1,-1,-1,-1],"loss_changes":[7.539526E1,2.3615845E1,8.15935E0,1.7580933E1,3.5338945E0,0E0,5.0079765E0,1.3932732E1,8.701904E0,2.5078218E0,1.8411247E0,3.5629835E0,2.2576542E0,6.377472E0,1.0004578E1,2.6416016E0,7.9381104E0,2.1879535E0,0E0,0E0,0E0,1.1355077E0,3.1486325E0,9.4860077E-1,0E0,3.0053635E0,6.0934534E0,2.35217E0,9.751756E0,1.612915E0,6.640752E0,4.287018E0,9.450324E0,2.475699E0,1.9578519E0,0E0,0E0,1.2613087E0,0E0,0E0,2.7982764E0,0E0,0E0,0E0,0E0,0E0,0E0,0E0,0E0,0E0,0E0,0E0,0E0,0E0,0E0,0E0,0E0,0E0,0E0,0E0,0E0,0E0,0E0,0E0,0E0],"parents":[2147483647,0,0,1,1,2,2,3,3,4,4,6,6,7,7,8,8,9,9,10,10,11,11,12,12,13,13,14,14,15,15,16,16,17,17,21,21,22,22,23,23,25,25,26,26,27,27,28,28,29,29,30,30,31,31,32,32,33,33,34,34,37,37,40,40],"right_children":[2,4,6,8,10,-1,12,14,16,18,20,22,24,26,28,30,32,34,-1,-1,-1,36,38,40,-1,42,44,46,48,50,52,54,56,58,60,-1,-1,62,-1,-1,64,-1,-1,-1,-1,-1,-1,-1,-1,-1,-1,-1,-1,-1,-1,-1,-1,-1,-1,-1,-1,-1,-1,-1,-1],"split_conditions":[9.6E1,5.702E3,7.62E5,1.9E1,8E0,-7.8195155E-2,4E0,5E0,1.8571428E0,1.5E1,4E0,4E0,8.189E3,1.826E3,7.31E2,3E0,1.827E3,9E0,-6.0065597E-2,-8.239444E-2,4.0627047E-2,4.62E2,6E0,1.75E6,1.315822E-2,8.977988E-1,2.6047484E5,1.9657438E-1,5.702E3,2.192E3,1E0,4E0,1.310281E0,1E0,1.1459387E5,2.4684664E-2,-7.834013E-2,3.0160153E5,-3.4164406E-2,1.5416634E-1,2.3E6,-9.118461E-2,1.8477643E-2,-5.578785E-2,6.581506E-2,4.1572105E-2,-8.5372366E-2,1.3466354E-1,-7.781844E-3,-1.0045772E-1,-5.84498E-2,2.8360618E-2,-8.980695E-2,-7.149793E-2,-9.610658E-2,-5.6302693E-2,1.280966E-1,4.681876E-2,-7.406988E-2,-2.0508931E-3,1.2332956E-1,1.8451396E-2,1.5168047E-1,-3.2453176E-2,1.1049775E-1],"split_indices":[32,9,154,160,29,0,70,29,28,159,61,1,11,2,2,33,2,151,0,0,0,2,26,153,0,175,166,175,9,2,24,20,175,1,166,0,0,92,0,0,0,0,0,0,0,0,0,0,0,0,0,0,0,0,0,0,0,0,0,0,0,0,0,0,0],"split_type":[0,0,0,0,0,0,0,0,0,0,0,0,0,0,0,0,0,0,0,0,0,0,0,0,0,0,0,0,0,0,0,0,0,0,0,0,0,0,0,0,0,0,0,0,0,0,0,0,0,0,0,0,0,0,0,0,0,0,0,0,0,0,0,0,0],"sum_hessian":[2.3558308E3,2.3282722E3,2.7558502E1,2.3102803E3,1.7991991E1,2.4984248E0,2.5060078E1,2.1817749E2,2.0921028E3,1.3737646E1,4.254346E0,8.26408E0,1.6795998E1,1.8088461E2,3.729287E1,1.6481748E3,4.4392798E2,1.25166235E1,1.2210225E0,3.2505374E0,1.0038084E0,3.3632178E0,4.900862E0,1.4763792E1,2.032205E0,1.2859642E2,5.2288197E1,1.3962722E1,2.3330147E1,1.6237236E3,2.4451132E1,3.8246838E2,6.1459606E1,6.24715E0,6.2694736E0,1.000445E0,2.362773E0,3.374448E0,1.5264144E0,9.651752E0,5.112039E0,1.2636135E2,2.2350721E0,4.86253E1,3.6628926E0,1.0361851E0,1.2926537E1,5.5351405E0,1.7795008E1,1.6097672E3,1.3956419E1,5.737029E0,1.8714102E1,1.2208168E2,2.6038672E2,5.947193E1,1.9876752E0,4.840333E0,1.4068173E0,1.5508604E0,4.718613E0,1.332873E0,2.041575E0,1.3999215E0,3.7121174E0],"tree_param":{"num_deleted":"0","num_feature":"176","num_nodes":"65","size_leaf_vector":"1"}},{"base_weights":[-8.888312E-1,-9.0878344E-1,6.701407E-1,-9.180574E-1,1.8654977E-1,2.4464582E-1,1.3120112E0,-6.2922215E-1,-9.4870275E-1,4.2395464E-1,-4.5313576E-1,-8.1547044E-2,5.2531505E-1,4.63095E-2,1.3818784E-1,-7.4633276E-1,-8.793995E-2,-9.864507E-1,-8.087317E-1,8.590027E-1,-1.0024764E-1,4.9563184E-2,-8.672424E-2,9.288492E-1,8.1459306E-2,-8.735266E-1,-4.3427154E-1,-7.1209794E-1,2.694635E-1,-9.921681E-1,-5.9426945E-1,-8.6606485E-1,-4.554332E-1,1.0181123E0,2.7945472E-3,-4.771365E-1,5.187156E-1,2.350841E-1,1.5116222E-1,9.4776325E-2,-2.4081399E-1,-8.951645E-2,1.700261E-2,-5.8163623E-3,-7.629717E-2,-6.218465E-3,-9.621267E-2,9.593076E-2,-1.564709E-2,-9.957011E-2,-5.5793345E-2,2.5367156E-2,-8.8140324E-2,-6.886911E-2,-9.47913E-2,-6.3465565E-2,3.962362E-2,2.306772E-3,1.22986756E-1,-7.33145E-2,2.6126102E-2,9.1837116E-2,-1.3172637E-2,8.907659E-2,-5.198874E-2,-9.856956E-2,4.4317663E-2],"categories":[],"categories_nodes":[],"categories_segments":[],"categories_sizes":[],"default_left":[0,1,0,0,0,0,0,1,1,0,0,0,0,0,0,0,0,0,0,1,0,0,0,0,0,1,0,0,0,0,0,0,0,0,0,0,0,0,0,0,0,0,0,0,0,0,0,0,0,0,0,0,0,0,0,0,0,0,0,0,0,0,0,0,0,0,0],"id":11,"left_children":[1,3,5,7,9,11,13,15,17,19,21,-1,23,-1,-1,25,27,29,31,33,35,-1,-1,37,39,41,43,45,47,49,51,53,55,57,-1,59,61,63,-1,-1,65,-1,-1,-1,-1,-1,-1,-1,-1,-1,-1,-1,-1,-1,-1,-1,-1,-1,-1,-1,-1,-1,-1,-1,-1,-1,-1],"loss_changes":[6.80697E1,2.19281E1,7.321233E0,1.8203613E1,3.0491686E0,5.8009167E0,8.068085E-3,1.3037697E1,9.337769E0,3.3330479E0,2.6204352E0,0E0,2.5903711E0,0E0,0E0,6.3607254E0,8.646872E0,2.7878418E0,7.9712524E0,1.0141687E0,1.9627322E0,0E0,0E0,2.757977E0,2.5132113E0,2.8539047E0,6.2803106E0,2.2273521E0,7.444852E0,1.7198486E0,6.100479E0,4.489746E0,9.375157E0,1.3601184E0,0E0,1.1538991E0,9.688891E-1,2.7894983E0,0E0,0E0,3.8823595E0,0E0,0E0,0E0,0E0,0E0,0E0,0E0,0E0,0E0,0E0,0E0,0E0,0E0,0E0,0E0,0E0,0E0,0E0,0E0,0E0,0E0,0E0,0E0,0E0,0E0,0E0],"parents":[2147483647,0,0,1,1,2,2,3,3,4,4,5,5,6,6,7,7,8,8,9,9,10,10,12,12,15,15,16,16,17,17,18,18,19,19,20,20,23,23,24,24,25,25,26,26,27,27,28,28,29,29,30,30,31,31,32,32,33,33,35,35,36,36,37,37,40,40],"right_children":[2,4,6,8,10,12,14,16,18,20,22,-1,24,-1,-1,26,28,30,32,34,36,-1,-1,38,40,42,44,46,48,50,52,54,56,58,-1,60,62,64,-1,-1,66,-1,-1,-1,-1,-1,-1,-1,-1,-1,-1,-1,-1,-1,-1,-1,-1,-1,-1,-1,-1,-1,-1,-1,-1,-1,-1],"split_conditions":[9.6E1,5.702E3,1.24E2,1.9E1,2E0,6.140537E4,2.157E3,5E0,1.8571428E0,5E0,3E0,-8.1547044E-2,8.1E1,4.63095E-2,1.3818784E-1,1.826E3,7.31E2,3E0,1.827E3,2E0,1.827E3,4.9563184E-2,-8.672424E-2,1E0,7E0,8.977988E-1,4E0,1.2E1,1E0,2.192E3,1E0,4E0,1.636994E4,3E0,2.7945472E-3,3.6E6,2.018E5,9.492821E4,1.5116222E-1,9.4776325E-2,1E0,-8.951645E-2,1.700261E-2,-5.8163623E-3,-7.629717E-2,-6.218465E-3,-9.621267E-2,9.593076E-2,-1.564709E-2,-9.957011E-2,-5.5793345E-2,2.5367156E-2,-8.8140324E-2,-6.886911E-2,-9.47913E-2,-6.3465565E-2,3.962362E-2,2.306772E-3,1.22986756E-1,-7.33145E-2,2.6126102E-2,9.1837116E-2,-1.3172637E-2,8.907659E-2,-5.198874E-2,-9.856956E-2,4.4317663E-2],"split_indices":[32,9,161,160,24,90,32,29,28,161,20,0,1,0,0,2,2,33,2,170,2,0,0,82,161,175,161,160,24,2,24,20,95,150,0,0,154,99,0,0,13,0,0,0,0,0,0,0,0,0,0,0,0,0,0,0,0,0,0,0,0,0,0,0,0,0,0],"split_type":[0,0,0,0,0,0,0,0,0,0,0,0,0,0,0,0,0,0,0,0,0,0,0,0,0,0,0,0,0,0,0,0,0,0,0,0,0,0,0,0,0,0,0,0,0,0,0,0,0,0,0,0,0,0,0,0,0,0,0,0,0,0,0,0,0,0,0],"sum_hessian":[2.1678062E3,2.1408242E3,2.698191E1,2.123011E3,1.7813221E1,1.7056398E1,9.925512E0,2.0571E2,1.917301E3,1.3237621E1,4.5755997E0,3.1715777E0,1.3884821E1,1.33484E0,8.590672E0,1.6880821E2,3.6901787E1,1.5052992E3,4.1200183E2,6.8849497E0,6.3526716E0,1.3304679E0,3.2451315E0,6.700415E0,7.184406E0,1.1864868E2,5.0159534E1,1.307522E1,2.3826567E1,1.4821614E3,2.3137817E1,3.5322858E2,5.8773243E1,5.589697E0,1.295253E0,4.090865E0,2.261806E0,3.699598E0,3.000817E0,1.4217436E0,5.762662E0,1.163778E2,2.2708862E0,2.394171E1,2.6217825E1,3.9795833E0,9.095636E0,8.617464E0,1.5209103E1,1.4689174E3,1.3244041E1,5.8825283E0,1.725529E1,1.145028E2,2.3872578E2,4.8765915E1,1.0007325E1,1.1753985E0,4.4142985E0,3.0429595E0,1.0479058E0,1.1458408E0,1.1159654E0,1.8837347E0,1.8158634E0,2.547395E0,3.2152672E0],"tree_param":{"num_deleted":"0","num_feature":"176","num_nodes":"67","size_leaf_vector":"1"}},{"base_weights":[-8.728976E-1,-8.9330024E-1,6.291189E-1,-5.776801E-1,-9.2849827E-1,2.3079252E-1,1.2384902E0,-8.997174E-1,-3.592057E-1,-9.3589425E-1,9.085115E-2,-7.9719625E-2,4.895511E-1,4.9909588E-2,1.3287282E-1,-9.402249E-1,-3.0241188E-1,-4.8627943E-1,4.8999178E-1,-9.7685665E-1,-7.866788E-1,-3.2831407E-1,6.6249645E-1,-1.448414E-1,7.113122E-1,-9.5205814E-1,-3.8935733E-3,4.5864648E-1,-8.1877545E-2,-1.3949677E-1,-7.931487E-1,1.2688963E-1,1.7749983E0,-9.830583E-1,-5.682052E-1,-8.4707E-1,-4.2859003E-1,4.046777E-1,-7.15167E-1,-6.4908825E-2,1.0545255E0,5.502823E-2,-8.123716E-2,2.9338E-1,1.4279088E0,-9.641408E-2,-4.503197E-3,1.3830356E-1,-5.9210923E-2,-2.9766435E-2,1.2086546E-1,-8.3971456E-2,4.55676E-2,-5.7632416E-2,9.1450475E-2,2.871718E-1,1.5759317E-2,-9.869008E-2,-5.3159382E-2,2.273587E-2,-8.644228E-2,-6.620719E-2,-9.3455866E-2,7.002006E-2,-5.5615306E-2,-3.0953947E-2,1.11829914E-1,4.540522E-3,-9.0654984E-2,-3.0857405E-2,2.19672E-2,3.5678208E-2,1.2168223E-1,8.315062E-2,-3.3387017E-2,1.7908624E-1,5.637869E-2],"categories":[],"categories_nodes":[],"categories_segments":[],"categories_sizes":[],"default_left":[0,0,0,0,1,0,0,1,1,1,0,0,0,0,0,0,0,0,0,0,0,0,0,0,1,1,0,0,0,1,0,1,0,0,0,0,0,1,0,0,0,0,0,0,0,0,0,0,0,0,0,0,0,0,0,0,0,0,0,0,0,0,0,0,0,0,0,0,0,0,0,0,0,0,0,0,0],"id":12,"left_children":[1,3,5,7,9,11,13,15,17,19,21,-1,23,-1,-1,25,27,29,31,33,35,37,39,41,43,45,-1,47,-1,49,51,53,55,57,59,61,63,65,67,69,71,-1,-1,73,75,-1,-1,-1,-1,-1,-1,-1,-1,-1,-1,-1,-1,-1,-1,-1,-1,-1,-1,-1,-1,-1,-1,-1,-1,-1,-1,-1,-1,-1,-1,-1,-1],"loss_changes":[6.1770752E1,2.1359863E1,6.3537836E0,1.3776253E1,1.3441284E1,5.117234E0,4.298973E-2,1.6594315E0,1.330219E1,9.982544E0,3.4937046E0,0E0,2.1874616E0,0E0,0E0,7.6026917E-1,2.9599042E0,1.1148954E1,7.3595657E0,2.9283447E0,7.940918E0,2.7158742E0,1.8124223E0,2.613334E0,2.9197469E0,7.648239E-1,0E0,4.023498E0,0E0,1.1210443E1,3.6345444E0,8.143451E0,5.7636957E0,1.8240967E0,5.6022286E0,4.6827393E0,8.660038E0,2.1783137E0,9.09055E-1,2.816197E-1,2.2441864E-2,0E0,0E0,3.0791519E0,1.9721031E-1,0E0,0E0,0E0,0E0,0E0,0E0,0E0,0E0,0E0,0E0,0E0,0E0,0E0,0E0,0E0,0E0,0E0,0E0,0E0,0E0,0E0,0E0,0E0,0E0,0E0,0E0,0E0,0E0,0E0,0E0,0E0,0E0],"parents":[2147483647,0,0,1,1,2,2,3,3,4,4,5,5,6,6,7,7,8,8,9,9,10,10,12,12,15,15,16,16,17,17,18,18,19,19,20,20,21,21,22,22,23,23,24,24,25,25,27,27,29,29,30,30,31,31,32,32,33,33,34,34,35,35,36,36,37,37,38,38,39,39,40,40,43,43,44,44],"right_children":[2,4,6,8,10,12,14,16,18,20,22,-1,24,-1,-1,26,28,30,32,34,36,38,40,42,44,46,-1,48,-1,50,52,54,56,58,60,62,64,66,68,70,72,-1,-1,74,76,-1,-1,-1,-1,-1,-1,-1,-1,-1,-1,-1,-1,-1,-1,-1,-1,-1,-1,-1,-1,-1,-1,-1,-1,-1,-1,-1,-1,-1,-1,-1,-1],"split_conditions":[9.6E1,1.9E1,1.24E2,7.31E2,5.702E3,6.140537E4,2.188E3,5E0,8E0,1.8571428E0,1.318E3,-7.9719625E-2,1E0,4.9909588E-2,1.3287282E-1,4E0,2.10531E5,4E0,1.4E1,3E0,1.827E3,0E0,7E0,8.98E2,6.58E2,8.56671E-1,-3.8935733E-3,1.2E1,-8.1877545E-2,2.2597886E5,4.166E3,9.85785E4,6.971377E4,2.192E3,1E0,4E0,5.62955E1,3.62117E1,2E4,1.1E1,6.6897975E5,5.502823E-2,-8.123716E-2,4.2E0,1.451647E5,-9.641408E-2,-4.503197E-3,1.3830356E-1,-5.9210923E-2,-2.9766435E-2,1.2086546E-1,-8.3971456E-2,4.55676E-2,-5.7632416E-2,9.1450475E-2,2.871718E-1,1.5759317E-2,-9.869008E-2,-5.3159382E-2,2.273587E-2,-8.644228E-2,-6.620719E-2,-9.3455866E-2,7.002006E-2,-5.5615306E-2,-3.0953947E-2,1.11829914E-1,4.540522E-3,-9.0654984E-2,-3.0857405E-2,2.19672E-2,3.5678208E-2,1.2168223E-1,8.315062E-2,-3.3387017E-2,1.7908624E-1,5.637869E-2],"split_indices":[32,160,161,2,9,90,31,28,29,28,7,0,156,0,0,30,0,161,33,33,2,165,150,83,7,175,0,160,0,166,91,166,169,2,24,20,173,173,154,161,154,0,0,28,91,0,0,0,0,0,0,0,0,0,0,0,0,0,0,0,0,0,0,0,0,0,0,0,0,0,0,0,0,0,0,0,0],"split_type":[0,0,0,0,0,0,0,0,0,0,0,0,0,0,0,0,0,0,0,0,0,0,0,0,0,0,0,0,0,0,0,0,0,0,0,0,0,0,0,0,0,0,0,0,0,0,0,0,0,0,0,0,0,0,0,0,0,0,0,0,0,0,0,0,0,0,0,0,0,0,0,0,0,0,0,0,0],"sum_hessian":[1.9963447E3,1.9699907E3,2.6354078E1,1.9939877E2,1.7705919E3,1.6770489E1,9.58359E0,7.9336464E1,1.2006231E2,1.7579191E3,1.2672824E1,2.9540145E0,1.3816475E1,1.7527499E0,7.8308396E0,7.376016E1,5.576308E0,1.0480646E2,1.525585E1,1.3749292E3,3.8298984E2,7.557138E0,5.1156864E0,3.668589E0,1.0147885E1,7.2748695E1,1.0114646E0,2.2992554E0,3.2770524E0,4.9886253E1,5.4920204E1,1.2751442E1,2.5044076E0,1.3529907E3,2.1938538E1,3.265518E2,5.6438057E1,2.5947134E0,4.9624243E0,2.0837474E0,3.0319393E0,1.8831943E0,1.7853949E0,7.299874E0,2.8480113E0,7.1730194E1,1.0185025E0,1.0549482E0,1.2443072E0,4.5345448E1,4.540806E0,5.3261787E1,1.6584153E0,6.8784018E0,5.8730407E0,1.0302873E0,1.4741203E0,1.3403966E3,1.2594145E1,6.015342E0,1.5923196E1,1.0759843E2,2.1895335E2,5.2746086E0,5.116345E1,1.579818E0,1.0148953E0,1.1510003E0,3.8114243E0,1.077152E0,1.0065953E0,1.1757039E0,1.8562354E0,3.7538013E0,3.5460727E0,1.2503623E0,1.597649E0],"tree_param":{"num_deleted":"0","num_feature":"176","num_nodes":"77","size_leaf_vector":"1"}},{"base_weights":[-8.5631335E-1,-8.772182E-1,5.9178376E-1,-5.4979473E-1,-9.1494995E-1,-7.349458E-2,7.3602724E-1,-8.834424E-1,-3.336491E-1,-9.2277855E-1,9.256346E-2,8.267097E-1,-6.1282802E-2,-9.0655833E-1,5.934885E-3,-3.9546618E-1,1.2591039E0,-9.6718764E-1,-7.640489E-1,-3.072308E-1,6.1622185E-1,-3.142872E-2,9.155761E-1,-1.0533089E-1,-9.3047494E-1,-4.5742446E-1,1.4433402E0,2.1419542E-1,-2.7784154E-2,-9.7391105E-1,-5.42416E-1,-8.2753295E-1,-4.019955E-1,3.8720757E-1,-6.8954253E-1,-2.6455233E-2,8.6553055E-1,1.5052508E-1,1.0393541E0,4.6694573E-2,-5.7280667E-2,-6.57704E-2,-1.0062849E-1,8.455839E-3,-6.051014E-2,4.96925E-3,2.4811168E-1,-9.780895E-2,-5.0555345E-2,2.041409E-2,-8.470707E-2,-6.351677E-2,-9.20906E-2,-5.8738805E-2,3.991079E-2,1.0937061E-1,-3.094365E-2,4.293631E-3,-8.843746E-2,8.380887E-3,1.2443888E-1,-5.84335E-2,5.7371616E-2,1.1285944E-1,2.6672412E-2],"categories":[],"categories_nodes":[],"categories_segments":[],"categories_sizes":[],"default_left":[0,0,0,0,1,0,0,0,0,1,0,0,0,0,0,0,0,0,0,0,0,0,0,0,0,0,1,0,0,0,0,0,0,0,0,0,0,0,1,0,0,0,0,0,0,0,0,0,0,0,0,0,0,0,0,0,0,0,0,0,0,0,0,0,0],"id":13,"left_children":[1,3,5,7,9,-1,11,13,15,17,19,21,-1,23,-1,25,27,29,31,33,35,-1,37,39,41,43,45,-1,-1,47,49,51,53,55,57,-1,59,61,63,-1,-1,-1,-1,-1,-1,-1,-1,-1,-1,-1,-1,-1,-1,-1,-1,-1,-1,-1,-1,-1,-1,-1,-1,-1,-1],"loss_changes":[5.624695E1,2.1921265E1,5.668601E0,1.341177E1,1.2910522E1,0E0,3.523758E0,1.6689911E0,1.2012479E1,1.0635498E1,3.0043297E0,2.674446E0,0E0,1.2893944E0,0E0,1.357284E1,6.84813E0,3.0617676E0,7.884674E0,2.468482E0,1.5802927E0,0E0,1.9356766E0,1.1305573E0,7.89299E-1,8.887709E0,5.5680294E0,0E0,0E0,1.9249268E0,5.141221E0,4.8616943E0,8.444662E0,2.1026902E0,8.524921E-1,0E0,1.385529E0,1.6556944E0,9.984741E-1,0E0,0E0,0E0,0E0,0E0,0E0,0E0,0E0,0E0,0E0,0E0,0E0,0E0,0E0,0E0,0E0,0E0,0E0,0E0,0E0,0E0,0E0,0E0,0E0,0E0,0E0],"parents":[2147483647,0,0,1,1,2,2,3,3,4,4,6,6,7,7,8,8,9,9,10,10,11,11,13,13,15,15,16,16,17,17,18,18,19,19,20,20,22,22,23,23,24,24,25,25,26,26,29,29,30,30,31,31,32,32,33,33,34,34,36,36,37,37,38,38],"right_children":[2,4,6,8,10,-1,12,14,16,18,20,22,-1,24,-1,26,28,30,32,34,36,-1,38,40,42,44,46,-1,-1,48,50,52,54,56,58,-1,60,62,64,-1,-1,-1,-1,-1,-1,-1,-1,-1,-1,-1,-1,-1,-1,-1,-1,-1,-1,-1,-1,-1,-1,-1,-1,-1,-1],"split_conditions":[9.6E1,1.9E1,7.62E5,7.31E2,5.702E3,-7.349458E-2,1.08E2,5E0,1.912522E4,1.8571428E0,1.318E3,6.420311E4,-6.1282802E-2,7.6393686E-2,5.934885E-3,1.4E1,1E0,3E0,1.827E3,0E0,1.613E3,-3.142872E-2,5E0,1.2121505E5,1E0,1E0,2E0,2.1419542E-1,-2.7784154E-2,2.192E3,1E0,4E0,1.636994E4,3.8154462E6,2E4,-2.6455233E-2,7E0,1.69E2,8.192E3,4.6694573E-2,-5.7280667E-2,-6.57704E-2,-1.0062849E-1,8.455839E-3,-6.051014E-2,4.96925E-3,2.4811168E-1,-9.780895E-2,-5.0555345E-2,2.041409E-2,-8.470707E-2,-6.351677E-2,-9.20906E-2,-5.8738805E-2,3.991079E-2,1.0937061E-1,-3.094365E-2,4.293631E-3,-8.843746E-2,8.380887E-3,1.2443888E-1,-5.84335E-2,5.7371616E-2,1.1285944E-1,2.6672412E-2],"split_indices":[32,160,154,2,9,0,21,31,90,28,7,93,0,175,0,33,1,33,2,165,2,0,151,166,24,25,170,0,0,2,24,20,95,167,154,0,150,33,11,0,0,0,0,0,0,0,0,0,0,0,0,0,0,0,0,0,0,0,0,0,0,0,0,0,0],"split_type":[0,0,0,0,0,0,0,0,0,0,0,0,0,0,0,0,0,0,0,0,0,0,0,0,0,0,0,0,0,0,0,0,0,0,0,0,0,0,0,0,0,0,0,0,0,0,0,0,0,0,0,0,0,0,0,0,0,0,0,0,0,0,0,0,0],"sum_hessian":[1.8398895E3,1.8140955E3,2.5794178E1,1.8906087E2,1.6250345E3,2.127803E0,2.3666374E1,7.311363E1,1.1594723E2,1.6125885E3,1.2446056E1,2.253825E1,1.1281248E0,7.1401405E1,1.712229E0,1.123389E2,3.6083279E0,1.2560731E3,3.5651532E2,7.2921004E0,5.153956E0,1.4452603E0,2.1092989E1,2.2261891E0,6.917522E1,1.0940379E2,2.9351048E0,2.041823E0,1.5665048E0,1.2352289E3,2.084424E1,3.022345E2,5.4280827E1,2.584592E0,4.707508E0,1.1235305E0,4.0304255E0,3.2460146E0,1.7846975E1,1.0014111E0,1.224778E0,1.714863E1,5.2026585E1,2.3518173E1,8.588562E1,1.7000128E0,1.2350922E0,1.2232274E3,1.2001454E1,6.136547E0,1.4707693E1,1.0131332E2,2.0092117E2,4.429645E1,9.984375E0,1.0002395E0,1.5843525E0,1.1528707E0,3.5546377E0,1.7143388E0,2.3160865E0,1.0470526E0,2.198962E0,1.558604E1,2.260936E0],"tree_param":{"num_deleted":"0","num_feature":"176","num_nodes":"65","size_leaf_vector":"1"}},{"base_weights":[-8.39443E-1,-8.616497E-1,4.9697062E-1,-5.2215767E-1,-9.022009E-1,8.973808E-1,1.4482733E-2,-8.667313E-1,-3.0875275E-1,-9.721416E-1,-7.8131706E-1,3.9019355E-1,1.3116828E-1,-5.647881E-1,6.1457616E-1,-9.13382E-1,-2.4196303E-1,-4.336205E-1,4.451618E-1,-9.775967E-1,-3.3225337E-1,-8.0012935E-1,3.250431E-1,-1.4443097E-1,8.280286E-1,-7.8260034E-1,3.6938597E-2,1.2689183E0,-1.7040388E-1,-9.27025E-1,-3.893446E-3,4.9019027E-1,-7.868203E-2,-7.659475E-2,-7.603869E-1,1.3401657E-1,1.3976471E0,-9.858264E-1,-6.640703E-1,6.1489743E-1,-8.776942E-2,-6.2345606E-1,-9.17768E-1,5.754006E-1,-6.493448E-2,4.61481E-1,-8.260093E-2,9.897556E-2,2.4443598E-2,-8.877978E-2,-1.0469406E-2,1.8247364E-2,1.5611774E-1,-7.403895E-2,5.781073E-2,-9.4079785E-2,-1.0453898E-2,1.2793192E-1,-5.5200465E-2,-2.6267288E-2,9.8990954E-2,-8.1299186E-2,6.8809114E-2,-5.3233273E-2,7.902669E-2,7.2701476E-3,2.3001567E-1,-9.879097E-2,4.003774E-3,-9.32773E-2,5.7824077E-3,-2.4231683E-2,1.24647476E-1,-6.965938E-2,2.4578562E-2,-9.31632E-2,5.4213195E-3,-9.982176E-4,1.1471192E-1,7.383048E-2,-4.573122E-3],"categories":[],"categories_nodes":[],"categories_segments":[],"categories_sizes":[],"default_left":[0,0,0,0,0,0,1,1,1,0,1,0,0,0,0,1,0,0,0,0,0,0,0,0,1,0,0,0,0,0,0,0,0,1,1,1,1,1,1,0,0,0,1,0,0,0,0,0,0,0,0,0,0,0,0,0,0,0,0,0,0,0,0,0,0,0,0,0,0,0,0,0,0,0,0,0,0,0,0,0,0],"id":14,"left_children":[1,3,5,7,9,11,13,15,17,19,21,23,-1,25,27,29,31,33,35,37,39,41,43,45,47,49,-1,51,53,55,-1,57,-1,59,61,63,65,67,69,71,-1,73,75,77,-1,79,-1,-1,-1,-1,-1,-1,-1,-1,-1,-1,-1,-1,-1,-1,-1,-1,-1,-1,-1,-1,-1,-1,-1,-1,-1,-1,-1,-1,-1,-1,-1,-1,-1,-1,-1],"loss_changes":[5.0831665E1,2.2533203E1,5.4725895E0,1.3017803E1,1.1848999E1,2.745305E0,5.1767993E0,1.7768402E0,1.084256E1,2.9587402E0,1.1742554E1,2.0840878E0,0E0,1.8335814E0,3.9674368E0,7.2055054E-1,2.8282816E0,1.1323183E1,4.7226706E0,1.7504272E0,5.429978E0,1.0708221E1,2.7972553E0,2.2932997E0,2.0755935E-1,3.6888766E-1,0E0,1.0174079E0,2.220655E0,6.085739E-1,0E0,3.3614993E0,0E0,9.732604E0,4.432146E0,6.3652987E0,4.584058E0,1.9764404E0,5.2730446E0,2.4931958E0,0E0,1.4161491E1,4.412445E0,2.834226E0,0E0,4.6799886E-1,0E0,0E0,0E0,0E0,0E0,0E0,0E0,0E0,0E0,0E0,0E0,0E0,0E0,0E0,0E0,0E0,0E0,0E0,0E0,0E0,0E0,0E0,0E0,0E0,0E0,0E0,0E0,0E0,0E0,0E0,0E0,0E0,0E0,0E0,0E0],"parents":[2147483647,0,0,1,1,2,2,3,3,4,4,5,5,6,6,7,7,8,8,9,9,10,10,11,11,13,13,14,14,15,15,16,16,17,17,18,18,19,19,20,20,21,21,22,22,23,23,24,24,25,25,27,27,28,28,29,29,31,31,33,33,34,34,35,35,36,36,37,37,38,38,39,39,41,41,42,42,43,43,45,45],"right_children":[2,4,6,8,10,12,14,16,18,20,22,24,-1,26,28,30,32,34,36,38,40,42,44,46,48,50,-1,52,54,56,-1,58,-1,60,62,64,66,68,70,72,-1,74,76,78,-1,80,-1,-1,-1,-1,-1,-1,-1,-1,-1,-1,-1,-1,-1,-1,-1,-1,-1,-1,-1,-1,-1,-1,-1,-1,-1,-1,-1,-1,-1,-1,-1,-1,-1,-1,-1],"split_conditions":[5.2E1,1.9E1,1.0769231E0,7.31E2,1.643E3,4E0,1.5E1,5E0,8E0,5.8E1,5.702E3,9.751241E6,1.3116828E-1,1.9E1,1.01E2,1.30422086E5,2.10531E5,9E0,1.4E1,1.5E1,4E0,9.4E1,1E1,4.5E1,6.58E2,7.3E1,3.6938597E-2,3E0,3E0,3E0,-3.893446E-3,1.2E1,-7.868203E-2,8.191E3,3.5663272E6,9.85785E4,3.71246E1,7E0,1.2E1,3.8E1,-8.776942E-2,7.54355E3,4E0,1.318E3,-6.493448E-2,3.4E1,-8.260093E-2,9.897556E-2,2.4443598E-2,-8.877978E-2,-1.0469406E-2,1.8247364E-2,1.5611774E-1,-7.403895E-2,5.781073E-2,-9.4079785E-2,-1.0453898E-2,1.2793192E-1,-5.5200465E-2,-2.6267288E-2,9.8990954E-2,-8.1299186E-2,6.8809114E-2,-5.3233273E-2,7.902669E-2,7.2701476E-3,2.3001567E-1,-9.879097E-2,4.003774E-3,-9.32773E-2,5.7824077E-3,-2.4231683E-2,1.24647476E-1,-6.965938E-2,2.4578562E-2,-9.31632E-2,5.4213195E-3,-9.982176E-4,1.1471192E-1,7.383048E-2,-4.573122E-3],"split_indices":[30,160,28,2,2,152,1,28,29,45,9,93,0,81,1,169,0,160,33,61,25,160,159,15,7,29,0,25,18,30,0,160,0,11,172,166,173,27,159,15,0,95,27,7,0,8,0,0,0,0,0,0,0,0,0,0,0,0,0,0,0,0,0,0,0,0,0,0,0,0,0,0,0,0,0,0,0,0,0,0,0],"split_type":[0,0,0,0,0,0,0,0,0,0,0,0,0,0,0,0,0,0,0,0,0,0,0,0,0,0,0,0,0,0,0,0,0,0,0,0,0,0,0,0,0,0,0,0,0,0,0,0,0,0,0,0,0,0,0,0,0,0,0,0,0,0,0,0,0,0,0,0,0,0,0,0,0,0,0,0,0,0,0,0,0],"sum_hessian":[1.6973848E3,1.6699905E3,2.7394316E1,1.7967108E2,1.4903193E3,1.4500578E1,1.2893737E1,6.754627E1,1.1212482E2,9.396288E2,5.506906E2,7.3925037E0,7.108074E0,6.590629E0,6.303108E0,6.242325E1,5.1230226E0,9.6557274E1,1.5567543E1,9.311627E2,8.4660225E0,5.417555E2,8.935103E0,3.630075E0,3.7624285E0,5.4760795E0,1.1145496E0,3.101374E0,3.201734E0,6.1405087E1,1.0181642E0,2.228629E0,2.8943937E0,4.6732082E1,4.982519E1,1.2594154E1,2.9733884E0,9.0525665E2,2.5906094E1,3.0472217E0,5.418801E0,2.1906172E2,3.226938E2,7.4343977E0,1.5007063E0,2.0926588E0,1.5374163E0,2.401067E0,1.3613615E0,4.472431E0,1.0036483E0,1.0017653E0,2.0996087E0,1.8237855E0,1.3779485E0,6.0252293E1,1.1527929E0,1.1388165E0,1.0898128E0,4.0431507E1,6.3005733E0,4.8502434E1,1.3227569E0,6.342687E0,6.2514677E0,1.6425569E0,1.3308316E0,9.0345886E2,1.7977781E0,1.8666101E1,7.2399917E0,1.5541576E0,1.493064E0,2.0224362E2,1.68181E1,3.1819666E2,4.49714E0,4.1587706E0,3.275627E0,1.0590452E0,1.0336134E0],"tree_param":{"num_deleted":"0","num_feature":"176","num_nodes":"81","size_leaf_vector":"1"}},{"base_weights":[-8.2204235E-1,-8.4470725E-1,4.7146177E-1,-6.0088474E-1,-9.075781E-1,8.4392244E-1,6.0078697E-3,-7.803034E-1,-2.6057774E-1,-9.3688846E-1,-6.737238E-1,3.2265526E-1,1.2416568E0,-4.3267116E-1,6.312953E-1,-8.101903E-1,1.895506E-1,-3.4191912E-1,2.2580798E0,-9.4425046E-1,-1.0695821E-2,-7.2414863E-1,3.989537E-1,-7.140196E-2,6.399897E-1,1.3794886E-1,1.6444279E-2,-7.626981E-1,3.6663017E-1,9.847399E-1,-4.2949285E-2,2.4673688E-1,-8.267674E-1,1.4366697E-1,-3.6703205E-1,8.10292E-2,-5.9806037E-1,3.0801284E-1,3.28182E-2,-9.5126057E-1,-4.6929672E-1,1.7412739E-1,-5.6092304E-1,-7.4392265E-1,8.137719E-2,1.0779622E0,-7.23015E-2,6.416973E-2,1.0573145E-1,-8.7902606E-2,-7.601723E-3,-1.9796941E-2,7.687616E-2,1.197814E-1,1.1163947E-2,-6.582868E-2,1.2412202E-1,-5.5346966E-2,-9.087202E-2,-8.0686755E-2,5.5215694E-2,-4.0765135E-3,1.7957453E-1,2.4229053E-2,-7.503682E-2,-9.6588664E-2,-7.612084E-2,4.0069204E-2,-8.061015E-2,4.232042E-2,-8.761339E-2,-7.716084E-2,1.2952057E-2,-3.186203E-2,2.0505977E-1,6.484979E-2,-4.827478E-2],"categories":[],"categories_nodes":[],"categories_segments":[],"categories_sizes":[],"default_left":[0,0,0,0,0,0,0,0,0,0,1,0,0,0,1,0,0,0,0,1,0,0,0,0,0,0,0,0,0,0,0,1,0,0,1,0,0,0,0,0,0,0,0,1,0,0,0,0,0,0,0,0,0,0,0,0,0,0,0,0,0,0,0,0,0,0,0,0,0,0,0,0,0,0,0,0,0],"id":15,"left_children":[1,3,5,7,9,11,13,15,17,19,21,23,25,27,29,31,33,35,37,39,41,43,45,-1,47,-1,-1,49,51,53,-1,55,57,-1,59,61,63,-1,-1,65,67,-1,69,71,-1,73,-1,75,-1,-1,-1,-1,-1,-1,-1,-1,-1,-1,-1,-1,-1,-1,-1,-1,-1,-1,-1,-1,-1,-1,-1,-1,-1,-1,-1,-1,-1],"loss_changes":[4.6373413E1,2.3085571E1,4.787851E0,1.9272217E1,7.755615E0,2.7818909E0,3.9203467E0,6.192932E0,2.363895E1,7.3862915E0,7.852684E0,3.0869534E0,1.0137701E0,2.4974647E0,2.6308353E0,3.7487335E0,5.4133186E0,1.1856103E1,4.7376156E0,3.1366577E0,1.0197846E1,4.677841E0,6.053652E0,0E0,1.5297496E0,0E0,0E0,4.3444538E-1,8.6336327E-1,7.4450827E-1,0E0,4.3220906E0,3.9635925E0,0E0,2.7352252E0,8.842677E0,8.885468E0,0E0,0E0,2.210022E0,5.4878845E0,0E0,2.8635547E0,3.3097916E0,0E0,7.0573106E0,0E0,1.5460733E0,0E0,0E0,0E0,0E0,0E0,0E0,0E0,0E0,0E0,0E0,0E0,0E0,0E0,0E0,0E0,0E0,0E0,0E0,0E0,0E0,0E0,0E0,0E0,0E0,0E0,0E0,0E0,0E0,0E0],"parents":[2147483647,0,0,1,1,2,2,3,3,4,4,5,5,6,6,7,7,8,8,9,9,10,10,11,11,12,12,13,13,14,14,15,15,16,16,17,17,18,18,19,19,20,20,21,21,22,22,24,24,27,27,28,28,29,29,31,31,32,32,34,34,35,35,36,36,39,39,40,40,42,42,43,43,45,45,47,47],"right_children":[2,4,6,8,10,12,14,16,18,20,22,24,26,28,30,32,34,36,38,40,42,44,46,-1,48,-1,-1,50,52,54,-1,56,58,-1,60,62,64,-1,-1,66,68,-1,70,72,-1,74,-1,76,-1,-1,-1,-1,-1,-1,-1,-1,-1,-1,-1,-1,-1,-1,-1,-1,-1,-1,-1,-1,-1,-1,-1,-1,-1,-1,-1,-1,-1],"split_conditions":[5.2E1,3.8E1,7.3E2,1.734E3,1.827E3,4E0,5.0959475E5,1.578111E4,1.1E1,7.584587E4,3E0,1.043E3,1.125E0,7.5E1,8.192E3,5.3E1,1.2E4,4E0,4E0,3.5E0,7.6E1,4E0,2.8807E2,-7.140196E-2,9.751241E6,1.3794886E-1,1.6444279E-2,2E0,8.97969E3,9.833333E0,-4.2949285E-2,2.8E1,9E0,1.4366697E-1,8E0,3E0,5.881E3,3.0801284E-1,3.28182E-2,9.4258E3,1.5500716E5,1.7412739E-1,3E0,5.702E3,8.137719E-2,3.77912E3,-7.23015E-2,4.5E1,1.0573145E-1,-8.7902606E-2,-7.601723E-3,-1.9796941E-2,7.687616E-2,1.197814E-1,1.1163947E-2,-6.582868E-2,1.2412202E-1,-5.5346966E-2,-9.087202E-2,-8.0686755E-2,5.5215694E-2,-4.0765135E-3,1.7957453E-1,2.4229053E-2,-7.503682E-2,-9.6588664E-2,-7.612084E-2,4.0069204E-2,-8.061015E-2,4.232042E-2,-8.761339E-2,-7.716084E-2,1.2952057E-2,-3.186203E-2,2.0505977E-1,6.484979E-2,-4.827478E-2],"split_indices":[30,160,2,2,2,152,90,90,35,100,27,31,27,21,11,7,153,161,25,27,160,163,110,0,93,0,0,76,106,28,0,12,160,0,150,34,9,0,0,129,166,0,25,9,0,104,0,15,0,0,0,0,0,0,0,0,0,0,0,0,0,0,0,0,0,0,0,0,0,0,0,0,0,0,0,0,0],"split_type":[0,0,0,0,0,0,0,0,0,0,0,0,0,0,0,0,0,0,0,0,0,0,0,0,0,0,0,0,0,0,0,0,0,0,0,0,0,0,0,0,0,0,0,0,0,0,0,0,0,0,0,0,0,0,0,0,0,0,0,0,0,0,0,0,0,0,0,0,0,0,0,0,0,0,0,0,0],"sum_hessian":[1.5671971E3,1.5405505E3,2.6646696E1,3.1797092E2,1.2225796E3,1.4350318E1,1.2296379E1,2.0735503E2,1.10615875E2,1.0837416E3,1.3883804E2,6.994551E0,7.3557663E0,7.4075527E0,4.888826E0,2.0131593E2,6.039101E0,1.0799245E2,2.6234283E0,1.0751759E3,8.565668E0,1.3291484E2,5.9231915E0,1.3463178E0,5.6482334E0,6.27257E0,1.0831964E0,5.2752333E0,2.1323197E0,3.7207859E0,1.1680403E0,2.8943229E0,1.984216E2,1.3756E0,4.663501E0,4.0990807E1,6.700163E1,1.4218E0,1.2016282E0,1.0585493E3,1.6626612E1,1.5298506E0,7.0358176E0,1.317373E2,1.1775471E0,3.7144513E0,2.2087402E0,2.8582368E0,2.7899966E0,4.2715054E0,1.0037276E0,1.0981697E0,1.0341499E0,2.6919303E0,1.0288554E0,1.6923088E0,1.202014E0,4.7562576E1,1.5085902E2,3.2368512E0,1.4266497E0,3.918385E1,1.806958E0,1.0189693E1,5.6811943E1,9.7911597E2,7.943332E1,4.587392E0,1.203922E1,1.6237289E0,5.412089E0,1.2780289E2,3.9344144E0,1.8009411E0,1.9135101E0,1.2920619E0,1.5661747E0],"tree_param":{"num_deleted":"0","num_feature":"176","num_nodes":"77","size_leaf_vector":"1"}},{"base_weights":[-8.035999E-1,-8.270253E-1,4.246398E-1,-5.8920014E-1,-8.9926714E-1,-6.293162E-1,6.057771E-1,-7.749841E-1,-2.543196E-1,-9.0753824E-1,3.6378473E-2,-6.5550334E-3,-7.698992E-2,8.321166E-1,-6.065592E-2,-8.9072675E-1,-5.21471E-1,-5.0203204E-1,4.3626323E-1,-9.1761035E-1,-2.6350912E-1,3.6247867E-1,-7.7492125E-2,9.2114943E-1,-2.2472082E-2,-8.08269E-2,6.048631E-1,-6.0254496E-1,-9.7728425E-1,3.6159295E-1,-6.897619E-1,-8.995074E-2,-6.892868E-1,1.2624517E-1,1.4682714E0,-9.2783356E-1,-3.362941E-1,-5.068046E-1,1.8184555E-1,-6.3840374E-2,1.0819554E-1,1.3137983E0,6.0194385E-1,-3.640018E-2,1.13091074E-1,-7.856893E-2,2.355216E-3,-2.9113535E-2,-1.0010377E-1,1.1026033E-1,-3.307591E-2,-7.768839E-2,2.859641E-3,7.2929256E-2,-4.074895E-2,-7.506311E-2,7.025417E-2,6.72448E-2,-4.980807E-2,1.9946708E-1,-2.8280651E-2,-9.33786E-2,-1.1247273E-2,5.180172E-2,-7.4741356E-2,-6.594219E-2,9.410267E-2,5.1255304E-2,-7.5540856E-2,5.7157E-2,1.6488127E-1,-1.7542182E-2,9.2805624E-2],"categories":[],"categories_nodes":[],"categories_segments":[],"categories_sizes":[],"default_left":[0,0,0,0,1,0,0,1,0,0,0,0,0,0,0,0,0,0,0,1,0,0,0,0,0,0,0,1,0,0,0,0,1,0,0,0,0,0,0,0,0,1,0,0,0,0,0,0,0,0,0,0,0,0,0,0,0,0,0,0,0,0,0,0,0,0,0,0,0,0,0,0,0],"id":16,"left_children":[1,3,5,7,9,11,13,15,17,19,21,-1,-1,23,25,27,29,31,33,35,37,39,-1,41,-1,-1,43,45,47,49,51,53,55,57,59,61,63,65,-1,67,-1,69,71,-1,-1,-1,-1,-1,-1,-1,-1,-1,-1,-1,-1,-1,-1,-1,-1,-1,-1,-1,-1,-1,-1,-1,-1,-1,-1,-1,-1,-1,-1],"loss_changes":[4.2068542E1,2.3920715E1,5.6879086E0,2.0612213E1,8.465698E0,3.1150222E-1,3.7052631E0,5.8334503E0,2.0889769E1,6.7648315E0,3.0613542E0,0E0,0E0,1.9152403E0,4.008986E0,3.0516815E0,1.0606127E1,6.8364143E0,1.0192186E1,6.0059204E0,1.005712E1,2.5773933E0,0E0,1.3323832E0,0E0,0E0,2.6108212E0,4.1830435E0,1.5116272E0,6.4243913E0,3.7071133E0,7.8625355E0,5.7626762E0,9.213758E0,7.3841076E0,4.9627075E0,7.391159E0,4.3615384E0,0E0,2.8104856E0,0E0,7.361822E-1,2.9994597E0,0E0,0E0,0E0,0E0,0E0,0E0,0E0,0E0,0E0,0E0,0E0,0E0,0E0,0E0,0E0,0E0,0E0,0E0,0E0,0E0,0E0,0E0,0E0,0E0,0E0,0E0,0E0,0E0,0E0,0E0],"parents":[2147483647,0,0,1,1,2,2,3,3,4,4,5,5,6,6,7,7,8,8,9,9,10,10,13,13,14,14,15,15,16,16,17,17,18,18,19,19,20,20,21,21,23,23,26,26,27,27,28,28,29,29,30,30,31,31,32,32,33,33,34,34,35,35,36,36,37,37,39,39,41,41,42,42],"right_children":[2,4,6,8,10,12,14,16,18,20,22,-1,-1,24,26,28,30,32,34,36,38,40,-1,42,-1,-1,44,46,48,50,52,54,56,58,60,62,64,66,-1,68,-1,70,72,-1,-1,-1,-1,-1,-1,-1,-1,-1,-1,-1,-1,-1,-1,-1,-1,-1,-1,-1,-1,-1,-1,-1,-1,-1,-1,-1,-1,-1,-1],"split_conditions":[5E1,4.3E1,1.091E6,1.734E3,5.702E3,5.9E1,5.6000008E1,8.5714287E-1,1.1E1,2.041E3,2E0,-6.5550334E-3,-7.698992E-2,2E1,3.8983234E5,7E0,1.2E1,4E0,3E0,3.5E0,1.743058E4,1E0,-7.7492125E-2,4.7E1,-2.2472082E-2,-8.08269E-2,4E0,3E0,-2E0,5E0,2E0,2E0,5.702E3,1E0,2.376E1,7.584587E4,1.5500716E5,1.126926E4,1.8184555E-1,1E0,1.0819554E-1,6.58E2,2E0,-3.640018E-2,1.13091074E-1,-7.856893E-2,2.355216E-3,-2.9113535E-2,-1.0010377E-1,1.1026033E-1,-3.307591E-2,-7.768839E-2,2.859641E-3,7.2929256E-2,-4.074895E-2,-7.506311E-2,7.025417E-2,6.72448E-2,-4.980807E-2,1.9946708E-1,-2.8280651E-2,-9.33786E-2,-1.1247273E-2,5.180172E-2,-7.4741356E-2,-6.594219E-2,9.410267E-2,5.1255304E-2,-7.5540856E-2,5.7157E-2,1.6488127E-1,-1.7542182E-2,9.2805624E-2],"split_indices":[32,160,154,2,9,160,12,28,29,2,24,0,0,20,91,160,160,161,34,27,111,56,0,15,0,0,1,150,165,161,18,25,9,1,100,100,166,107,0,26,0,7,158,0,0,0,0,0,0,0,0,0,0,0,0,0,0,0,0,0,0,0,0,0,0,0,0,0,0,0,0,0,0],"split_type":[0,0,0,0,0,0,0,0,0,0,0,0,0,0,0,0,0,0,0,0,0,0,0,0,0,0,0,0,0,0,0,0,0,0,0,0,0,0,0,0,0,0,0,0,0,0,0,0,0,0,0,0,0,0,0,0,0,0,0,0,0,0,0,0,0,0,0,0,0,0,0,0,0],"sum_hessian":[1.4489249E3,1.4221283E3,2.6796665E1,3.3347183E2,1.0886565E3,3.5670967E0,2.3229568E1,2.1363684E2,1.19834984E2,1.0791469E3,9.50956E0,1.0046248E0,2.5624719E0,1.7154726E1,6.074843E0,1.4494702E2,6.868981E1,8.8399185E1,3.14358E1,1.0621115E3,1.7035406E1,7.1777077E0,2.3318522E0,1.5940238E1,1.2144883E0,2.7599497E0,3.314893E0,3.531883E1,1.096282E2,1.081135E1,5.7878464E1,2.8081696E1,6.0317486E1,2.5036959E1,6.3988414E0,1.0431698E3,1.8941656E1,1.5930378E1,1.1050276E0,5.079291E0,2.0984168E0,5.7506423E0,1.0189595E1,1.2748823E0,2.040011E0,2.7128399E1,8.19043E0,4.1117387E0,1.0551646E2,4.9359527E0,5.8753977E0,5.1545578E1,6.3328843E0,7.481886E0,2.059981E1,5.8212482E1,2.1050048E0,1.3312873E1,1.1724087E1,4.812903E0,1.5859386E0,1.0354653E3,7.7045407E0,6.069383E0,1.28722725E1,1.490389E1,1.0264884E0,2.9115164E0,2.1677747E0,2.6299844E0,3.1206577E0,3.1479049E0,7.041691E0],"tree_param":{"num_deleted":"0","num_feature":"176","num_nodes":"73","size_leaf_vector":"1"}},{"base_weights":[-7.8499377E-1,-8.1631196E-1,1.3789189E-1,-4.4357088E-1,-8.65876E-1,-1.728398E-1,1.0545986E0,-8.1770456E-1,-2.3231976E-1,-9.495775E-1,-7.246234E-1,-4.2589304E-1,7.157513E-1,4.5797923E-1,1.4154969E-1,-8.6203825E-1,4.0254105E-2,-2.9497296E-1,1.3749363E0,-9.569552E-1,-2.5903672E-1,-7.8691113E-1,-3.0652586E-1,5.9282684E-1,-6.1793303E-1,1.3312346E0,3.3458605E-2,-1.3035513E-1,9.738418E-2,4.8176474E-3,-8.947453E-1,-6.6383444E-2,9.4441615E-2,2.3174775E-1,-4.5253122E-1,2.0083068E-1,1.7092815E-2,-1.121211E-1,-9.608623E-1,4.938007E-1,-8.4153034E-2,-8.2973754E-1,-2.5375742E-1,1.8822585E0,-4.7760087E-1,1.2635795E0,-6.2431533E-2,6.0462385E-2,-6.995822E-1,1.6987121E-1,1.6427921E-2,7.101958E-2,-4.3822768E-1,-8.990901E-2,5.8397304E-2,-4.310327E-2,-9.6255325E-2,-3.8579494E-2,1.0649369E-1,-5.1786747E-2,8.269807E-2,-7.228671E-2,9.606716E-2,-9.634952E-2,4.2457446E-3,1.23591535E-1,-2.922268E-2,-4.2999256E-2,-8.7642215E-2,1.5968545E-1,-5.0947636E-2,3.9139774E-1,-8.502967E-3,1.8696142E-2,-7.930987E-2,-1.5445764E-2,2.170743E-1,-7.988168E-2,3.8750898E-2,-6.94696E-2,9.313552E-3],"categories":[],"categories_nodes":[],"categories_segments":[],"categories_sizes":[],"default_left":[0,0,0,0,0,1,0,0,0,0,1,0,0,0,0,0,1,0,0,0,0,0,0,0,0,0,0,0,0,0,0,0,0,0,0,0,0,0,1,0,0,0,0,0,0,0,0,0,0,0,0,0,0,0,0,0,0,0,0,0,0,0,0,0,0,0,0,0,0,0,0,0,0,0,0,0,0,0,0,0,0],"id":17,"left_children":[1,3,5,7,9,11,13,15,17,19,21,23,25,27,-1,29,31,33,35,37,39,41,43,45,47,49,51,53,-1,-1,55,-1,-1,57,59,-1,-1,61,63,65,-1,67,69,71,73,75,-1,-1,77,-1,-1,-1,79,-1,-1,-1,-1,-1,-1,-1,-1,-1,-1,-1,-1,-1,-1,-1,-1,-1,-1,-1,-1,-1,-1,-1,-1,-1,-1,-1,-1],"loss_changes":[3.8906982E1,2.3601746E1,1.2974598E1,1.20154E1,1.28479E1,8.039883E0,1.8299961E0,2.139347E0,1.0485144E1,3.3981934E0,1.096254E1,5.726996E0,3.3140879E0,1.8922316E0,0E0,1.6107635E0,2.9659135E0,8.168372E0,2.655284E0,2.2284546E0,4.33442E0,8.324295E0,2.239985E1,4.7537518E0,2.7732506E0,1.5130281E0,1.849444E0,2.501518E0,0E0,0E0,1.1850357E0,0E0,0E0,1.2262317E1,6.708988E0,0E0,0E0,3.570842E0,1.9015503E0,3.002723E0,0E0,6.07193E0,1.4647942E1,1.7779644E1,1.1481977E1,4.788444E0,0E0,0E0,2.7404957E0,0E0,0E0,0E0,5.359553E-1,0E0,0E0,0E0,0E0,0E0,0E0,0E0,0E0,0E0,0E0,0E0,0E0,0E0,0E0,0E0,0E0,0E0,0E0,0E0,0E0,0E0,0E0,0E0,0E0,0E0,0E0,0E0,0E0],"parents":[2147483647,0,0,1,1,2,2,3,3,4,4,5,5,6,6,7,7,8,8,9,9,10,10,11,11,12,12,13,13,15,15,16,16,17,17,18,18,19,19,20,20,21,21,22,22,23,23,24,24,25,25,26,26,27,27,30,30,33,33,34,34,37,37,38,38,39,39,41,41,42,42,43,43,44,44,45,45,48,48,52,52],"right_children":[2,4,6,8,10,12,14,16,18,20,22,24,26,28,-1,30,32,34,36,38,40,42,44,46,48,50,52,54,-1,-1,56,-1,-1,58,60,-1,-1,62,64,66,-1,68,70,72,74,76,-1,-1,78,-1,-1,-1,80,-1,-1,-1,-1,-1,-1,-1,-1,-1,-1,-1,-1,-1,-1,-1,-1,-1,-1,-1,-1,-1,-1,-1,-1,-1,-1,-1,-1],"split_conditions":[4.57215E4,1.9E1,3.7E1,7.31E2,1.643E3,1E1,1E0,2.175E3,2.270318E4,5.8E1,8.192E3,3.7E1,1.01E2,1.32E2,1.4154969E-1,7.6393686E-2,9.09794E4,1E0,1.1762E4,5.3E1,4E0,7.54355E3,3E0,1.604971E4,9.090909E-2,1.744201E4,7E0,1.7E1,9.738418E-2,4.8176474E-3,8.192E3,-6.6383444E-2,9.4441615E-2,9E0,1.4E1,2.0083068E-1,1.7092815E-2,3E0,7E0,1.800001E1,-8.4153034E-2,1.12591E2,3E0,4.3E1,8.8E1,8.5714287E-1,-6.2431533E-2,6.0462385E-2,1.918E3,1.6987121E-1,1.6427921E-2,7.101958E-2,1E0,-8.990901E-2,5.8397304E-2,-4.310327E-2,-9.6255325E-2,-3.8579494E-2,1.0649369E-1,-5.1786747E-2,8.269807E-2,-7.228671E-2,9.606716E-2,-9.634952E-2,4.2457446E-3,1.23591535E-1,-2.922268E-2,-4.2999256E-2,-8.7642215E-2,1.5968545E-1,-5.0947636E-2,3.9139774E-1,-8.502967E-3,1.8696142E-2,-7.930987E-2,-1.5445764E-2,2.170743E-1,-7.988168E-2,3.8750898E-2,-6.94696E-2,9.313552E-3],"split_indices":[91,160,161,2,2,1,156,91,90,45,11,160,1,161,0,175,166,25,9,7,25,95,16,90,27,97,161,159,0,0,11,0,0,21,33,0,0,152,27,14,0,173,16,10,160,27,0,0,2,0,0,0,13,0,0,0,0,0,0,0,0,0,0,0,0,0,0,0,0,0,0,0,0,0,0,0,0,0,0,0,0],"split_type":[0,0,0,0,0,0,0,0,0,0,0,0,0,0,0,0,0,0,0,0,0,0,0,0,0,0,0,0,0,0,0,0,0,0,0,0,0,0,0,0,0,0,0,0,0,0,0,0,0,0,0,0,0,0,0,0,0,0,0,0,0,0,0,0,0,0,0,0,0,0,0,0,0,0,0,0,0,0,0,0,0],"sum_hessian":[1.3412234E3,1.2973145E3,4.3909004E1,1.5342764E2,1.1438867E3,3.339927E1,1.0509736E1,5.433231E1,9.909533E1,7.146732E2,4.2921356E2,2.6401386E1,6.9978843E0,4.8164363E0,5.6932993E0,5.1658195E1,2.6741135E0,9.616322E1,2.9321094E0,7.067367E2,7.9365244E0,3.7279312E2,5.6420464E1,3.8565333E0,2.2544853E1,3.1790261E0,3.8188581E0,2.5992885E0,2.2171478E0,1.7754567E0,4.988274E1,1.6528267E0,1.0212868E0,2.2033587E1,7.412963E1,1.4836276E0,1.4484819E0,3.3900905E0,7.0334656E2,3.5284643E0,4.40806E0,3.4455957E2,2.823355E1,3.3650093E0,5.3055454E1,2.461743E0,1.3947902E0,1.0104187E0,2.1534433E1,2.0711396E0,1.1078866E0,1.3608162E0,2.458042E0,1.127385E0,1.4719036E0,7.302231E0,4.258051E1,1.2962795E1,9.070791E0,7.109457E1,3.0350676E0,2.3681011E0,1.0219892E0,7.015452E2,1.8013265E0,1.5205275E0,2.0079367E0,3.709946E1,3.074601E2,2.7909756E0,2.5442574E1,1.1686037E0,2.1964056E0,1.7210596E1,3.584486E1,1.2841514E0,1.1775917E0,1.9976105E1,1.5583292E0,1.4505386E0,1.0075032E0],"tree_param":{"num_deleted":"0","num_feature":"176","num_nodes":"81","size_leaf_vector":"1"}},{"base_weights":[-7.6553845E-1,-8.177596E-1,-1.8250401E-1,-2.0456927E-1,-8.550803E-1,2.169955E-1,-6.345492E-1,-5.880992E-1,1.9076912E-1,-8.656971E-1,1.5361296E-1,-1.24358915E-1,7.8627586E-1,-7.3024094E-1,5.402015E-1,4.1596627E-1,-7.975437E-1,7.546714E-1,-4.942187E-1,-9.166106E-1,-6.5739805E-1,3.4580126E-1,-6.6621386E-2,8.477066E-1,-4.43315E-1,2.1121E0,5.01124E-1,-2.586531E-1,-8.440503E-1,1.02125265E-1,-3.596578E-2,2.0234418E-1,-3.450378E-1,-8.959505E-1,8.141511E-2,3.6747244E-1,2.100577E0,5.138485E-2,-8.3352387E-1,-9.8509717E-1,-8.4046227E-1,-4.695534E-1,-8.5930145E-1,7.125678E-1,-1.756212E-1,-2.564028E-1,2.1870635E0,8.545142E-1,-6.496603E-1,2.4171319E-2,2.9822332E-1,-4.0437156E-1,6.879E-1,8.466968E-1,-7.680344E-1,4.303619E-2,-8.954214E-1,-6.46516E-2,4.6379387E-2,-9.6214905E-2,-1.2814936E-2,-8.136926E-2,8.0620766E-2,3.1619295E-1,9.512951E-3,8.703446E-2,-3.6256935E-2,-2.2702604E-3,-9.239656E-2,6.6034705E-3,-9.9164434E-2,-6.525742E-2,-9.162068E-2,-7.062281E-2,-1.160502E-2,-8.863754E-2,5.0341226E-2,-5.1354743E-3,1.0765826E-1,-5.900516E-2,7.159804E-2,-8.119406E-2,7.248086E-2,2.7801663E-1,3.4657057E-2,-3.613787E-2,2.0853491E-1,3.284049E-2,-8.642401E-2,-6.899723E-2,1.9454276E-2,9.693149E-2,2.233953E-2,-6.2986225E-2,2.1804221E-1,-2.7818203E-3,-8.786058E-2,-9.456757E-2,-1.1139735E-2],"categories":[],"categories_nodes":[],"categories_segments":[],"categories_sizes":[],"default_left":[0,0,0,1,1,0,1,0,0,1,0,0,0,0,0,0,1,1,0,0,0,0,0,0,0,0,0,0,0,0,0,0,0,0,0,0,0,0,0,0,0,0,0,0,0,0,0,0,0,0,0,0,0,0,0,0,0,0,0,0,0,0,0,0,0,0,0,0,0,0,0,0,0,0,0,0,0,0,0,0,0,0,0,0,0,0,0,0,0,0,0,0,0,0,0,0,0,0,0],"id":18,"left_children":[1,3,5,7,9,11,13,15,17,19,21,23,25,27,29,31,33,35,37,39,41,43,-1,45,47,49,51,53,55,-1,-1,-1,57,59,-1,61,63,65,67,69,71,73,75,77,79,81,83,85,87,-1,-1,89,91,93,95,-1,97,-1,-1,-1,-1,-1,-1,-1,-1,-1,-1,-1,-1,-1,-1,-1,-1,-1,-1,-1,-1,-1,-1,-1,-1,-1,-1,-1,-1,-1,-1,-1,-1,-1,-1,-1,-1,-1,-1,-1,-1,-1,-1],"loss_changes":[3.7715088E1,2.5938843E1,1.8832426E1,1.0237849E1,1.1648621E1,1.0921507E1,5.8825893E0,7.5116405E0,1.3366769E1,1.0684326E1,2.1289022E0,1.1439273E1,6.8866844E0,2.227396E0,2.207915E0,8.71062E0,5.264168E0,9.04949E0,2.9665759E0,3.6190186E0,7.6587906E0,2.1177673E0,0E0,1.4105358E1,7.926124E0,4.826889E0,3.4250088E0,6.450211E0,2.759718E0,0E0,0E0,0E0,1.5921566E0,1.2705212E0,0E0,8.868607E0,8.209892E0,2.6878386E0,6.973586E-1,3.1150513E0,5.245178E0,9.315922E0,4.181717E0,1.8112504E0,2.3087482E0,3.8130784E0,3.6688213E0,7.0507054E0,5.3871746E0,0E0,0E0,7.86184E-1,1.8481774E0,8.709457E0,5.9561443E-1,0E0,1.2810326E0,0E0,0E0,0E0,0E0,0E0,0E0,0E0,0E0,0E0,0E0,0E0,0E0,0E0,0E0,0E0,0E0,0E0,0E0,0E0,0E0,0E0,0E0,0E0,0E0,0E0,0E0,0E0,0E0,0E0,0E0,0E0,0E0,0E0,0E0,0E0,0E0,0E0,0E0,0E0,0E0,0E0,0E0],"parents":[2147483647,0,0,1,1,2,2,3,3,4,4,5,5,6,6,7,7,8,8,9,9,10,10,11,11,12,12,13,13,14,14,15,15,16,16,17,17,18,18,19,19,20,20,21,21,23,23,24,24,25,25,26,26,27,27,28,28,32,32,33,33,35,35,36,36,37,37,38,38,39,39,40,40,41,41,42,42,43,43,44,44,45,45,46,46,47,47,48,48,51,51,52,52,53,53,54,54,56,56],"right_children":[2,4,6,8,10,12,14,16,18,20,22,24,26,28,30,32,34,36,38,40,42,44,-1,46,48,50,52,54,56,-1,-1,-1,58,60,-1,62,64,66,68,70,72,74,76,78,80,82,84,86,88,-1,-1,90,92,94,96,-1,98,-1,-1,-1,-1,-1,-1,-1,-1,-1,-1,-1,-1,-1,-1,-1,-1,-1,-1,-1,-1,-1,-1,-1,-1,-1,-1,-1,-1,-1,-1,-1,-1,-1,-1,-1,-1,-1,-1,-1,-1,-1,-1],"split_conditions":[4.7949673E3,9E0,2E0,8.953367E4,5.702E3,3.600375E4,1.5E1,1E0,2E0,1.8571428E0,1.3E1,3E0,3.746117E4,1E0,4.4E1,3.4E1,5.31835E-1,2E-1,2E0,1.096E3,9.4E1,6.25E-2,-6.6621386E-2,1.9E1,4.24E2,3.1E1,2E0,5.702E3,1.6666667E-1,1.02125265E-1,-3.596578E-2,2.0234418E-1,3.9E1,2E0,8.141511E-2,5.47E2,2E0,3.4E1,3E5,5.3E1,6.9E1,1.82E3,2.192E3,6E0,2.5004E4,4.59918E3,1.75E0,6.364E3,3E0,2.4171319E-2,2.9822332E-1,1.1E1,1E0,1.826E3,1.61E5,4.303619E-2,1.7E1,-6.46516E-2,4.6379387E-2,-9.6214905E-2,-1.2814936E-2,-8.136926E-2,8.0620766E-2,3.1619295E-1,9.512951E-3,8.703446E-2,-3.6256935E-2,-2.2702604E-3,-9.239656E-2,6.6034705E-3,-9.9164434E-2,-6.525742E-2,-9.162068E-2,-7.062281E-2,-1.160502E-2,-8.863754E-2,5.0341226E-2,-5.1354743E-3,1.0765826E-1,-5.900516E-2,7.159804E-2,-8.119406E-2,7.248086E-2,2.7801663E-1,3.4657057E-2,-3.613787E-2,2.0853491E-1,3.284049E-2,-8.642401E-2,-6.899723E-2,1.9454276E-2,9.693149E-2,2.233953E-2,-6.2986225E-2,2.1804221E-1,-2.7818203E-3,-8.786058E-2,-9.456757E-2,-1.1139735E-2],"split_indices":[93,160,24,166,9,91,1,25,1,28,159,16,92,155,29,8,175,27,25,2,160,27,0,21,174,21,39,9,28,0,0,0,15,152,0,2,152,8,0,7,160,2,2,151,98,96,27,92,161,0,0,16,25,2,0,0,57,0,0,0,0,0,0,0,0,0,0,0,0,0,0,0,0,0,0,0,0,0,0,0,0,0,0,0,0,0,0,0,0,0,0,0,0,0,0,0,0,0,0],"split_type":[0,0,0,0,0,0,0,0,0,0,0,0,0,0,0,0,0,0,0,0,0,0,0,0,0,0,0,0,0,0,0,0,0,0,0,0,0,0,0,0,0,0,0,0,0,0,0,0,0,0,0,0,0,0,0,0,0,0,0,0,0,0,0,0,0,0,0,0,0,0,0,0,0,0,0,0,0,0,0,0,0,0,0,0,0,0,0,0,0,0,0,0,0,0,0,0,0,0,0],"sum_hessian":[1.2426241E3,1.1401049E3,1.0251926E2,6.578132E1,1.0743236E3,5.46987E1,4.7820557E1,3.3141827E1,3.263949E1,1.0632742E3,1.1049448E1,3.46833E1,2.0015402E1,4.4568523E1,3.2520344E0,5.549894E0,2.7591932E1,1.7846222E1,1.4793267E1,8.516974E2,2.1157674E2,9.419483E0,1.629965E0,8.159196E0,2.6524103E1,2.4087765E0,1.7606625E1,9.300995E0,3.526753E1,2.0312543E0,1.2207803E0,1.2501919E0,4.299702E0,2.642271E1,1.1692225E0,1.4847754E1,2.9984684E0,5.997627E0,8.795641E0,4.4212274E2,4.0957465E2,1.1132712E2,1.00249626E2,5.314617E0,4.104866E0,4.9155703E0,3.2436259E0,3.2077098E0,2.3316393E1,1.1705089E0,1.2382677E0,2.8114798E0,1.4795145E1,2.7251825E0,6.5758123E0,1.0806755E0,3.418685E1,3.2784102E0,1.021292E0,2.4092382E1,2.3303285E0,3.7899091E0,1.1057844E1,1.5836669E0,1.4148014E0,1.6435474E0,4.3540792E0,1.0081818E0,7.787459E0,2.6805513E0,4.3944217E2,1.20437935E2,2.8913672E2,6.608477E1,4.5242348E1,9.863944E1,1.6101831E0,1.9923617E0,3.3222554E0,3.033199E0,1.0716671E0,3.2487307E0,1.6668395E0,2.0669818E0,1.1766442E0,1.9690043E0,1.2387055E0,4.099628E0,1.9216764E1,1.8007357E0,1.0107442E0,8.536584E0,6.258561E0,1.5437968E0,1.1813856E0,1.0172766E0,5.558536E0,3.1933784E1,2.2530687E0],"tree_param":{"num_deleted":"0","num_feature":"176","num_nodes":"99","size_leaf_vector":"1"}},{"base_weights":[-7.455199E-1,-8.0114436E-1,-1.7924036E-1,-1.861083E-1,-8.408768E-1,1.9258823E-1,-6.1287737E-1,-9.503384E-2,2.7542305E-3,-8.5194314E-1,1.445425E-1,-1.6019425E-1,6.704597E-1,-6.8681157E-1,7.341192E-2,-4.3721855E-1,3.9566192E-1,-9.0542364E-1,-6.354506E-1,5.9598446E-1,-1.9787885E-1,6.1295676E-1,-5.537886E-1,4.5443565E-1,2.3002087E-1,-6.824734E-2,-7.6356316E-1,5.8742374E-1,-7.047367E-1,9.033292E-1,-3.462164E-1,-9.808125E-1,-8.228797E-1,-6.663885E-1,4.7297236E-1,9.6245015E-1,-7.4987016E-3,3.099633E-1,-6.660447E-1,1.7314118E0,-5.744831E-1,4.743812E-1,-7.7048326E-1,-5.6415725E-1,7.530656E-1,1.1535461E-1,-6.180079E-1,-8.5372716E-1,-2.3449081E-1,1.5784574E-1,-4.736833E-2,-8.366345E-2,7.8975946E-2,-2.3123017E-2,1.2601736E-1,7.403719E-2,-5.3794682E-2,6.093266E-3,-9.8799326E-2,-6.263113E-2,-9.042574E-2,-6.921654E-2,7.460664E-2,-7.5555526E-2,1.6009066E-1,1.18035294E-1,2.7408758E-2,-2.0066215E-2,7.0956945E-2,-8.201916E-2,-8.851058E-3,-5.5709234E-3,2.535197E-1,-8.525846E-2,4.731311E-2,-4.274981E-2,1.5954371E-1,-8.771667E-2,3.930445E-2,-8.200654E-2,3.171198E-2,2.0831533E-1,5.371317E-2,-7.673879E-2,-1.6322747E-3,-9.131438E-2,-2.4963528E-2,-7.202492E-2,1.416891E-1],"categories":[],"categories_nodes":[],"categories_segments":[],"categories_sizes":[],"default_left":[0,0,0,0,1,0,0,0,1,1,0,0,1,0,0,0,0,0,0,0,0,0,0,0,0,0,0,0,1,0,0,0,0,1,1,0,0,0,0,0,0,0,0,0,0,0,0,1,1,0,0,0,0,0,0,0,0,0,0,0,0,0,0,0,0,0,0,0,0,0,0,0,0,0,0,0,0,0,0,0,0,0,0,0,0,0,0,0,0],"id":19,"left_children":[1,3,5,7,9,11,13,-1,15,17,19,21,23,25,-1,27,29,31,33,35,37,39,41,43,-1,45,47,49,51,53,55,57,59,61,63,65,-1,67,69,71,73,75,77,79,81,-1,83,85,87,-1,-1,-1,-1,-1,-1,-1,-1,-1,-1,-1,-1,-1,-1,-1,-1,-1,-1,-1,-1,-1,-1,-1,-1,-1,-1,-1,-1,-1,-1,-1,-1,-1,-1,-1,-1,-1,-1,-1,-1],"loss_changes":[3.6208374E1,2.551587E1,1.696918E1,9.389231E0,1.08811035E1,9.721126E0,5.3327312E0,0E0,9.359916E0,1.0721558E1,1.9436578E0,1.056845E1,7.5493402E0,2.1544876E0,0E0,7.4162626E0,1.10837145E1,4.047241E0,7.0583496E0,1.3860981E0,1.981766E0,1.6684969E1,5.4452887E0,7.3605585E0,0E0,4.8966217E0,1.767559E0,6.882804E0,4.743376E0,7.2778826E0,2.9695053E0,3.0710754E0,5.4894714E0,7.4964447E0,9.418917E0,2.0571113E-1,0E0,1.0124805E0,3.015647E-1,9.23822E0,2.2916377E0,5.3204956E0,2.7295542E0,1.5548033E0,4.0681505E0,0E0,4.3209624E-1,1.0234585E0,6.944447E0,0E0,0E0,0E0,0E0,0E0,0E0,0E0,0E0,0E0,0E0,0E0,0E0,0E0,0E0,0E0,0E0,0E0,0E0,0E0,0E0,0E0,0E0,0E0,0E0,0E0,0E0,0E0,0E0,0E0,0E0,0E0,0E0,0E0,0E0,0E0,0E0,0E0,0E0,0E0,0E0],"parents":[2147483647,0,0,1,1,2,2,3,3,4,4,5,5,6,6,8,8,9,9,10,10,11,11,12,12,13,13,15,15,16,16,17,17,18,18,19,19,20,20,21,21,22,22,23,23,25,25,26,26,27,27,28,28,29,29,30,30,31,31,32,32,33,33,34,34,35,35,37,37,38,38,39,39,40,40,41,41,42,42,43,43,44,44,46,46,47,47,48,48],"right_children":[2,4,6,8,10,12,14,-1,16,18,20,22,24,26,-1,28,30,32,34,36,38,40,42,44,-1,46,48,50,52,54,56,58,60,62,64,66,-1,68,70,72,74,76,78,80,82,-1,84,86,88,-1,-1,-1,-1,-1,-1,-1,-1,-1,-1,-1,-1,-1,-1,-1,-1,-1,-1,-1,-1,-1,-1,-1,-1,-1,-1,-1,-1,-1,-1,-1,-1,-1,-1,-1,-1,-1,-1,-1,-1],"split_conditions":[2.49396E3,9E0,2E0,3.65E2,5.702E3,5E0,7.893139E5,-9.503384E-2,8.953367E4,1.8571428E0,5E0,6E0,7.5685215E-1,5.31835E-1,7.341192E-2,1E0,2E0,1.096E3,2.041E3,1.827E3,4.1596E5,5E0,6.260703E4,4.57215E4,2.3002087E-1,3.8E1,3.7E1,1E0,5.31835E-1,7E0,4.62E2,5.3E1,6.9E1,1.0465298E0,1.7427834E5,3E0,-7.4987016E-3,2.4E6,1E1,1.613E3,8E0,4.334394E4,5.3E1,1.368531E4,1.3E1,1.1535461E-1,5.5E4,6.59E2,8E0,1.5784574E-1,-4.736833E-2,-8.366345E-2,7.8975946E-2,-2.3123017E-2,1.2601736E-1,7.403719E-2,-5.3794682E-2,6.093266E-3,-9.8799326E-2,-6.263113E-2,-9.042574E-2,-6.921654E-2,7.460664E-2,-7.5555526E-2,1.6009066E-1,1.18035294E-1,2.7408758E-2,-2.0066215E-2,7.0956945E-2,-8.201916E-2,-8.851058E-3,-5.5709234E-3,2.535197E-1,-8.525846E-2,4.731311E-2,-4.274981E-2,1.5954371E-1,-8.771667E-2,3.930445E-2,-8.200654E-2,3.171198E-2,2.0831533E-1,5.371317E-2,-7.673879E-2,-1.6322747E-3,-9.131438E-2,-2.4963528E-2,-7.202492E-2,1.416891E-1],"split_indices":[93,160,24,2,9,31,90,0,166,28,161,161,175,175,0,25,1,2,2,2,154,20,169,91,0,160,151,13,175,21,2,7,160,175,166,25,0,0,29,2,18,169,32,105,31,0,93,7,150,0,0,0,0,0,0,0,0,0,0,0,0,0,0,0,0,0,0,0,0,0,0,0,0,0,0,0,0,0,0,0,0,0,0,0,0,0,0,0,0],"split_type":[0,0,0,0,0,0,0,0,0,0,0,0,0,0,0,0,0,0,0,0,0,0,0,0,0,0,0,0,0,0,0,0,0,0,0,0,0,0,0,0,0,0,0,0,0,0,0,0,0,0,0,0,0,0,0,0,0,0,0,0,0,0,0,0,0,0,0,0,0,0,0,0,0,0,0,0,0,0,0,0,0,0,0,0,0,0,0,0,0],"sum_hessian":[1.153067E3,1.0495564E3,1.0351059E2,6.4033775E1,9.8552264E2,5.6026066E1,4.748452E1,1.1889827E1,5.214395E1,9.7471204E2,1.0810618E1,3.2613987E1,2.341208E1,4.547841E1,2.0061116E0,2.4545479E1,2.7598475E1,7.79074E2,1.9563803E2,4.3435984E0,6.46702E0,1.0814115E1,2.1799871E1,2.1801163E1,1.6109177E0,5.228614E0,4.0249794E1,4.834118E0,1.9711359E1,1.6256517E1,1.1341957E1,4.0149713E2,3.7757684E2,1.907137E2,4.9243374E0,2.5282996E0,1.8152988E0,3.2641544E0,3.2028658E0,5.332914E0,5.4812007E0,3.5877228E0,1.8212149E1,4.7409997E0,1.7060163E1,1.2817562E0,3.9468577E0,3.3864933E1,6.3848605E0,2.2474904E0,2.5866277E0,1.8517294E1,1.1940662E0,3.9738815E0,1.2282636E1,1.2719493E0,1.0070007E1,2.6973238E0,3.987998E2,1.1309391E2,2.6448294E2,1.8779642E2,2.9172726E0,2.5150876E0,2.40925E0,1.3775177E0,1.150782E0,1.65158E0,1.6125745E0,2.1964588E0,1.0064071E0,1.9431784E0,3.3897355E0,4.4784966E0,1.0027043E0,2.331066E0,1.2566569E0,1.6907976E1,1.3041719E0,3.727929E0,1.0130705E0,1.1750473E0,1.5885116E1,2.94124E0,1.0056175E0,3.0366571E1,3.498362E0,5.3693132E0,1.0155472E0],"tree_param":{"num_deleted":"0","num_feature":"176","num_nodes":"89","size_leaf_vector":"1"}},{"base_weights":[-7.2469556E-1,-7.8224725E-1,-1.6301034E-1,-1.7249143E-1,-8.240453E-1,1.8402657E-1,-5.8792114E-1,-9.409853E-2,3.4845397E-3,-9.0979344E-1,-6.753208E-1,-1.4467666E-1,6.155984E-1,-6.8140733E-1,5.057178E-1,-1.6065797E-1,9.0771157E-1,1.6842218E-1,-9.176848E-1,-4.7429898E-1,-8.504745E-1,7.094831E-1,-4.554004E-1,-7.505829E-2,7.728181E-1,-5.2176736E-2,-7.661955E-1,9.30049E-2,-3.23198E-2,-4.09597E-1,4.82627E-1,6.843966E-2,2.1613042E0,-7.389702E-2,1.420149E-1,-9.282826E-1,-2.4551503E-1,-6.095104E-1,4.4341382E-1,-8.7774837E-1,2.962633E-1,-5.5996287E-1,1.4793112E0,3.28555E-1,-6.9787586E-1,5.657554E-1,2.0278208E-1,1.02441095E-1,-5.9498394E-1,-8.9830804E-1,-2.113379E-1,-5.098805E-2,1.2542155E-1,1.360076E-1,-5.8793467E-2,-7.292113E-2,7.14395E-2,2.9721266E-1,2.6099948E-2,-9.36398E-2,-1.9300418E-3,8.209221E-2,-7.512657E-2,-7.004323E-2,5.920897E-2,2.360843E-1,1.4949836E-3,-8.9869104E-2,3.1673696E-2,-2.0816097E-2,8.875681E-2,-2.1109371E-3,-7.233801E-2,2.0477808E-1,-2.7517367E-2,-7.470251E-2,1.20933354E-1,-8.810663E-2,3.1452823E-2,-4.681171E-2,8.240095E-2,-7.488749E-2,-1.3924863E-3,-9.617645E-2,2.8461015E-2,8.4826834E-2,-7.1904175E-2],"categories":[],"categories_nodes":[],"categories_segments":[],"categories_sizes":[],"default_left":[0,0,0,0,0,0,1,0,1,0,0,0,0,0,0,1,1,1,0,1,1,0,0,0,1,0,0,0,0,0,0,0,0,0,0,0,0,0,0,0,0,0,0,0,1,0,0,0,0,0,0,0,0,0,0,0,0,0,0,0,0,0,0,0,0,0,0,0,0,0,0,0,0,0,0,0,0,0,0,0,0,0,0,0,0,0,0],"id":20,"left_children":[1,3,5,7,9,11,13,-1,15,17,19,21,23,25,27,29,31,33,35,37,39,41,43,-1,45,47,49,-1,-1,51,53,55,57,-1,-1,59,61,63,65,67,69,71,73,75,77,79,-1,-1,81,83,85,-1,-1,-1,-1,-1,-1,-1,-1,-1,-1,-1,-1,-1,-1,-1,-1,-1,-1,-1,-1,-1,-1,-1,-1,-1,-1,-1,-1,-1,-1,-1,-1,-1,-1,-1,-1],"loss_changes":[3.4557556E1,2.465625E1,1.4999511E1,8.61564E0,1.0994568E1,8.082555E0,5.010584E0,0E0,7.984644E0,5.042938E0,1.1454758E1,9.02737E0,5.8536634E0,2.2258282E0,1.7666047E0,7.4919453E0,8.547394E0,6.7503767E0,3.8361511E0,2.0009056E1,5.849457E0,9.759479E0,4.9163117E0,0E0,4.702585E0,4.183715E0,2.5482883E0,0E0,0E0,6.209347E0,1.3169042E1,3.6037257E0,4.2805443E0,0E0,0E0,4.122345E0,6.12614E0,1.5608135E1,1.7222528E1,4.657715E0,1.6460875E0,3.524058E-1,6.5114145E0,7.065556E0,3.8291454E0,5.9153323E0,0E0,0E0,4.0973032E-1,2.515297E0,5.177879E0,0E0,0E0,0E0,0E0,0E0,0E0,0E0,0E0,0E0,0E0,0E0,0E0,0E0,0E0,0E0,0E0,0E0,0E0,0E0,0E0,0E0,0E0,0E0,0E0,0E0,0E0,0E0,0E0,0E0,0E0,0E0,0E0,0E0,0E0,0E0,0E0],"parents":[2147483647,0,0,1,1,2,2,3,3,4,4,5,5,6,6,8,8,9,9,10,10,11,11,12,12,13,13,14,14,15,15,16,16,17,17,18,18,19,19,20,20,21,21,22,22,24,24,25,25,26,26,29,29,30,30,31,31,32,32,35,35,36,36,37,37,38,38,39,39,40,40,41,41,42,42,43,43,44,44,45,45,48,48,49,49,50,50],"right_children":[2,4,6,8,10,12,14,-1,16,18,20,22,24,26,28,30,32,34,36,38,40,42,44,-1,46,48,50,-1,-1,52,54,56,58,-1,-1,60,62,64,66,68,70,72,74,76,78,80,-1,-1,82,84,86,-1,-1,-1,-1,-1,-1,-1,-1,-1,-1,-1,-1,-1,-1,-1,-1,-1,-1,-1,-1,-1,-1,-1,-1,-1,-1,-1,-1,-1,-1,-1,-1,-1,-1,-1,-1],"split_conditions":[2.49396E3,9E0,2E0,3.65E2,1.82E3,5E0,1.5E1,-9.409853E-2,2E-1,5.3E1,9.4E1,3E0,1E0,5.31835E-1,4.4E1,6.524E3,1.5143397E5,2.8E1,1.5E1,8.192E3,5.702E3,1E0,4E0,-7.505829E-2,7.5685215E-1,3.8E1,2.67E3,9.30049E-2,-3.23198E-2,1E0,3E0,6.4781E2,2E0,-7.389702E-2,1.420149E-1,3.4E1,3E0,7.54355E3,1E0,9.7E1,9E0,6.687E5,5E0,1.643E3,2.9335874E-1,4.57215E4,2.0278208E-1,1.02441095E-1,1.2082393E7,5E1,1E0,-5.098805E-2,1.2542155E-1,1.360076E-1,-5.8793467E-2,-7.292113E-2,7.14395E-2,2.9721266E-1,2.6099948E-2,-9.36398E-2,-1.9300418E-3,8.209221E-2,-7.512657E-2,-7.004323E-2,5.920897E-2,2.360843E-1,1.4949836E-3,-8.9869104E-2,3.1673696E-2,-2.0816097E-2,8.875681E-2,-2.1109371E-3,-7.233801E-2,2.0477808E-1,-2.7517367E-2,-7.470251E-2,1.20933354E-1,-8.810663E-2,3.1452823E-2,-4.681171E-2,8.240095E-2,-7.488749E-2,-1.3924863E-3,-9.617645E-2,2.8461015E-2,8.4826834E-2,-7.1904175E-2],"split_indices":[93,160,24,2,2,31,1,0,27,7,160,16,158,175,29,11,166,12,37,11,9,155,161,0,175,160,137,0,0,18,25,91,152,0,0,45,20,95,25,159,56,0,1,2,175,91,0,0,172,159,76,0,0,0,0,0,0,0,0,0,0,0,0,0,0,0,0,0,0,0,0,0,0,0,0,0,0,0,0,0,0,0,0,0,0,0,0],"split_type":[0,0,0,0,0,0,0,0,0,0,0,0,0,0,0,0,0,0,0,0,0,0,0,0,0,0,0,0,0,0,0,0,0,0,0,0,0,0,0,0,0,0,0,0,0,0,0,0,0,0,0,0,0,0,0,0,0,0,0,0,0,0,0,0,0,0,0,0,0,0,0,0,0,0,0,0,0,0,0,0,0,0,0,0,0,0,0],"sum_hessian":[1.0719805E3,9.7199475E2,9.998565E1,6.268372E1,9.0931104E2,5.5348133E1,4.4637512E1,1.0869399E1,5.181432E1,5.735244E2,3.3578662E2,3.1795849E1,2.3552286E1,4.146956E1,3.1679544E0,4.454964E1,7.264681E0,4.0192747E0,5.695051E2,1.580744E2,1.7771223E2,8.138983E0,2.3656866E1,2.0411701E0,2.1511116E1,5.116242E0,3.6353317E1,2.0146344E0,1.1533202E0,3.238178E1,1.216786E1,4.9831142E0,2.2815669E0,2.567617E0,1.451658E0,5.602902E2,9.214882E0,1.3806796E2,2.0006437E1,1.7381285E2,3.8993797E0,3.1753864E0,4.9635963E0,5.504637E0,1.815223E1,1.970997E1,1.8011447E0,1.417523E0,3.698719E0,2.8862192E1,7.491125E0,3.1195097E1,1.1866841E0,6.5384293E0,5.629431E0,2.1720695E0,2.8110447E0,1.2038722E0,1.0776947E0,5.5530237E2,4.987869E0,2.763831E0,6.4510508E0,1.2874338E2,9.324581E0,2.830333E0,1.7176104E1,1.710613E2,2.7515516E0,2.4539511E0,1.4454286E0,1.0016639E0,2.1737225E0,3.6226535E0,1.3409427E0,2.546629E0,2.9580078E0,1.5480774E1,2.671456E0,3.776965E0,1.5933005E1,2.6959093E0,1.0028098E0,2.7570173E1,1.2920187E0,2.2093322E0,5.2817926E0],"tree_param":{"num_deleted":"0","num_feature":"176","num_nodes":"87","size_leaf_vector":"1"}},{"base_weights":[-7.0359075E-1,-7.625598E-1,-1.5190323E-1,-1.5643546E-1,-8.0626154E-1,1.6947347E-1,-5.6308526E-1,-9.314149E-2,9.724292E-3,-8.9778984E-1,-6.5101194E-1,-1.3411367E-1,5.618351E-1,-6.5651715E-1,4.713782E-1,-3.998316E-1,3.4315228E-1,1.6026495E-1,-9.062869E-1,-4.4765085E-1,-8.348952E-1,4.950991E-1,-5.058995E-1,-7.3092036E-2,7.044203E-1,-7.049119E-1,3.496028E-2,9.338039E-2,-2.3037476E-2,5.255437E-1,-6.697323E-1,7.5152E-1,-3.2181764E-1,-7.2287045E-2,1.2301754E-1,-9.177021E-1,-2.2804156E-1,-5.8327204E-1,3.9362383E-1,-8.634912E-1,2.8289083E-1,1.3310502E0,-5.554513E-1,4.6332696E-1,-7.357761E-1,1.1551722E0,2.73925E-1,-1.7586899E-1,-8.454613E-1,1.5955052E-1,-2.1367295E-2,1.5386893E-2,-9.624542E-2,1.1851288E-2,1.3110448E-1,2.0972412E-2,-7.402222E-2,-9.264775E-2,-1.7721249E-3,8.274065E-2,-7.452429E-2,-6.4112335E-2,1.21142425E-1,-2.416783E-2,1.3816063E-1,-8.859649E-2,2.8668199E-2,6.691497E-2,-3.91055E-2,5.0957482E-2,2.9179916E-1,-8.363651E-2,4.3839518E-2,-3.8847804E-2,1.3650642E-1,-8.552477E-2,4.0795863E-2,-6.0637064E-2,1.4452006E-1,-6.8386324E-2,6.722493E-2,8.8795416E-2,-7.2766535E-2,2.5925422E-2,-8.931188E-2],"categories":[],"categories_nodes":[],"categories_segments":[],"categories_sizes":[],"default_left":[0,0,0,0,0,0,1,0,1,0,0,0,0,0,0,0,0,1,0,1,1,0,0,0,0,0,0,0,0,0,0,0,0,0,0,0,0,0,0,0,0,0,0,0,0,0,0,0,0,0,0,0,0,0,0,0,0,0,0,0,0,0,0,0,0,0,0,0,0,0,0,0,0,0,0,0,0,0,0,0,0,0,0,0,0],"id":21,"left_children":[1,3,5,7,9,11,13,-1,15,17,19,21,23,25,27,29,31,33,35,37,39,41,43,-1,45,47,-1,-1,-1,49,51,53,55,-1,-1,57,59,61,63,65,67,69,71,73,75,77,79,81,83,-1,-1,-1,-1,-1,-1,-1,-1,-1,-1,-1,-1,-1,-1,-1,-1,-1,-1,-1,-1,-1,-1,-1,-1,-1,-1,-1,-1,-1,-1,-1,-1,-1,-1,-1,-1],"loss_changes":[3.2378967E1,2.3770386E1,1.3006396E1,7.981353E0,1.1369141E1,6.699295E0,4.474615E0,0E0,7.234109E0,4.879425E0,1.1429642E1,7.7734165E0,5.0218E0,2.1912708E0,1.56245E0,6.2923574E0,8.167294E0,5.656119E0,3.8363647E0,1.7576492E1,5.5057144E0,1.1672674E1,4.9549317E0,0E0,4.0556183E0,2.7096443E0,0E0,0E0,0E0,5.03193E0,4.6933956E0,6.3549995E0,2.7805157E0,0E0,0E0,4.0395813E0,6.064307E0,1.4412613E1,1.3957126E1,4.40905E0,1.5266106E0,7.9348555E0,2.1038208E0,4.051039E0,2.688981E0,6.3407183E0,5.3565073E0,6.123856E0,1.816742E0,0E0,0E0,0E0,0E0,0E0,0E0,0E0,0E0,0E0,0E0,0E0,0E0,0E0,0E0,0E0,0E0,0E0,0E0,0E0,0E0,0E0,0E0,0E0,0E0,0E0,0E0,0E0,0E0,0E0,0E0,0E0,0E0,0E0,0E0,0E0,0E0],"parents":[2147483647,0,0,1,1,2,2,3,3,4,4,5,5,6,6,8,8,9,9,10,10,11,11,12,12,13,13,14,14,15,15,16,16,17,17,18,18,19,19,20,20,21,21,22,22,24,24,25,25,29,29,30,30,31,31,32,32,35,35,36,36,37,37,38,38,39,39,40,40,41,41,42,42,43,43,44,44,45,45,46,46,47,47,48,48],"right_children":[2,4,6,8,10,12,14,-1,16,18,20,22,24,26,28,30,32,34,36,38,40,42,44,-1,46,48,-1,-1,-1,50,52,54,56,-1,-1,58,60,62,64,66,68,70,72,74,76,78,80,82,84,-1,-1,-1,-1,-1,-1,-1,-1,-1,-1,-1,-1,-1,-1,-1,-1,-1,-1,-1,-1,-1,-1,-1,-1,-1,-1,-1,-1,-1,-1,-1,-1,-1,-1,-1,-1],"split_conditions":[2.49396E3,9E0,2E0,3.65E2,1.82E3,5E0,1.5E1,-9.314149E-2,8.953367E4,5.3E1,9.4E1,6E0,1E0,1.5E6,7.31E2,1E0,2E0,2.8E1,1.5E1,8.192E3,5.702E3,5E0,6.260703E4,-7.3092036E-2,4E1,1E0,3.496028E-2,9.338039E-2,-2.3037476E-2,3.4E1,7.696907E4,1.8181819E-1,2E0,-7.2287045E-2,1.2301754E-1,3.4E1,1.9E1,3.406251E4,8.888889E-1,9.7E1,3.01E5,4E1,3.09E4,4.334394E4,5.3E1,1E4,8E0,5.702E3,6.779661E-2,1.5955052E-1,-2.1367295E-2,1.5386893E-2,-9.624542E-2,1.1851288E-2,1.3110448E-1,2.0972412E-2,-7.402222E-2,-9.264775E-2,-1.7721249E-3,8.274065E-2,-7.452429E-2,-6.4112335E-2,1.21142425E-1,-2.416783E-2,1.3816063E-1,-8.859649E-2,2.8668199E-2,6.691497E-2,-3.91055E-2,5.0957482E-2,2.9179916E-1,-8.363651E-2,4.3839518E-2,-3.8847804E-2,1.3650642E-1,-8.552477E-2,4.0795863E-2,-6.0637064E-2,1.4452006E-1,-6.8386324E-2,6.722493E-2,8.8795416E-2,-7.2766535E-2,2.5925422E-2,-8.931188E-2],"split_indices":[93,160,24,2,2,31,1,0,166,7,160,161,158,153,2,25,1,12,37,11,9,20,169,0,15,155,0,0,0,8,166,27,25,0,0,45,37,107,28,159,153,21,95,169,32,153,53,9,27,0,0,0,0,0,0,0,0,0,0,0,0,0,0,0,0,0,0,0,0,0,0,0,0,0,0,0,0,0,0,0,0,0,0,0,0],"split_type":[0,0,0,0,0,0,0,0,0,0,0,0,0,0,0,0,0,0,0,0,0,0,0,0,0,0,0,0,0,0,0,0,0,0,0,0,0,0,0,0,0,0,0,0,0,0,0,0,0,0,0,0,0,0,0,0,0,0,0,0,0,0,0,0,0,0,0,0,0,0,0,0,0,0,0,0,0,0,0,0,0,0,0,0,0],"sum_hessian":[9.978421E2,9.0113855E2,9.670354E1,6.0910942E1,8.402276E2,5.4609226E1,4.209431E1,9.940816E0,5.0970127E1,5.255839E2,3.1464368E2,3.1158634E1,2.3450594E1,3.8942417E1,3.151893E0,2.2784428E1,2.8185698E1,4.0449615E0,5.2153894E2,1.5103961E2,1.6360406E2,1.1449592E1,1.9709044E1,1.9196649E0,2.1530928E1,3.7440876E1,1.5015434E0,1.7005974E0,1.4512956E0,4.930986E0,1.7853443E1,1.7381382E1,1.0804316E1,2.3935878E0,1.6513736E0,5.125593E2,8.97966E0,1.3033508E2,2.0704525E1,1.5974486E2,3.8592052E0,6.227333E0,5.2222586E0,3.583677E0,1.6125366E1,9.695675E0,1.1835254E1,8.331506E0,2.910937E1,1.5414616E0,3.3895245E0,4.805908E0,1.3047534E1,8.723752E0,8.657631E0,4.978444E0,5.825871E0,5.0758057E2,4.9787297E0,2.7559144E0,6.223746E0,1.2688768E2,3.447407E0,1.306118E1,7.643346E0,1.5690865E2,2.8361998E0,2.457725E0,1.4014803E0,4.9737773E0,1.2535554E0,4.1949883E0,1.0272702E0,2.1355598E0,1.4481174E0,1.4828637E1,1.2967287E0,1.2164713E0,8.479203E0,3.265754E0,8.5695E0,2.6374629E0,5.6940427E0,1.0202262E0,2.8089142E1],"tree_param":{"num_deleted":"0","num_feature":"176","num_nodes":"85","size_leaf_vector":"1"}},{"base_weights":[-6.818585E-1,-7.4208206E-1,-1.4002143E-1,-2.1981023E-1,-7.968508E-1,1.5871371E-1,-5.379852E-1,2.2239443E-2,-7.291853E-1,-8.5124165E-1,-4.2704E-1,6.0101163E-1,-8.593002E-2,-6.148778E-1,6.608359E-2,-5.059966E-1,6.940853E-1,4.769839E-2,-7.968331E-1,-8.6140466E-1,1.1537182E-1,-4.9247205E-1,8.32669E-1,1.0454876E-1,1.9557528E0,-5.796655E-1,2.985451E-1,1.589581E-4,-7.0179206E-1,-6.058302E-1,9.155207E-2,9.6218735E-1,-8.370172E-2,-8.663598E-1,3.1900395E-2,-9.1265523E-1,-6.346689E-1,-3.5017908E-1,1.0594609E-1,-5.7633317E-1,1.844509E-1,1.6282192E0,-6.352966E-2,1.0432692E0,-4.1324294E-1,2.7220845E0,-1.6646355E-2,5.6271452E-2,-7.7445376E-1,-2.1661215E-1,8.0641264E-1,9.8318376E-2,-5.574404E-1,-8.0763227E-1,-1.332622E-1,-7.17437E-2,8.163319E-2,-7.421807E-2,1.2376342E-1,-7.4690483E-3,-9.8575205E-2,-9.2048936E-2,-3.9325763E-2,-6.861471E-2,5.395288E-2,1.230614E-2,-7.9191014E-2,1.476384E-2,-6.903698E-2,9.470514E-2,-6.862252E-2,2.2523418E-1,-2.7530035E-3,1.3143378E-1,8.462453E-3,-7.117592E-2,5.8016814E-2,3.403996E-1,3.9909717E-2,2.8414017E-2,-9.500227E-2,-7.56027E-2,6.408294E-2,1.3706706E-1,-1.3267408E-2,-1.53182E-3,-7.164147E-2,-8.7910004E-2,-1.6469222E-2,-6.616117E-2,1.3308495E-1],"categories":[],"categories_nodes":[],"categories_segments":[],